{"learner":{"attributes":{"scikit_learn":"{\"_estimator_type\": \"regressor\"}"},"feature_names":["B01","B02","B03","B04","B05","B06","B07","B08","B11","B12","B8A"],"feature_types":["float","float","float","float","float","float","float","float","float","float","float"],"gradient_booster":{"model":{"gbtree_model_param":{"num_parallel_tree":"1","num_trees":"649"},"iteration_indptr":[0,1,2,3,4,5,6,7,8,9,10,11,12,13,14,15,16,17,18,19,20,21,22,23,24,25,26,27,28,29,30,31,32,33,34,35,36,37,38,39,40,41,42,43,44,45,46,47,48,49,50,51,52,53,54,55,56,57,58,59,60,61,62,63,64,65,66,67,68,69,70,71,72,73,74,75,76,77,78,79,80,81,82,83,84,85,86,87,88,89,90,91,92,93,94,95,96,97,98,99,100,101,102,103,104,105,106,107,108,109,110,111,112,113,114,115,116,117,118,119,120,121,122,123,124,125,126,127,128,129,130,131,132,133,134,135,136,137,138,139,140,141,142,143,144,145,146,147,148,149,150,151,152,153,154,155,156,157,158,159,160,161,162,163,164,165,166,167,168,169,170,171,172,173,174,175,176,177,178,179,180,181,182,183,184,185,186,187,188,189,190,191,192,193,194,195,196,197,198,199,200,201,202,203,204,205,206,207,208,209,210,211,212,213,214,215,216,217,218,219,220,221,222,223,224,225,226,227,228,229,230,231,232,233,234,235,236,237,238,239,240,241,242,243,244,245,246,247,248,249,250,251,252,253,254,255,256,257,258,259,260,261,262,263,264,265,266,267,268,269,270,271,272,273,274,275,276,277,278,279,280,281,282,283,284,285,286,287,288,289,290,291,292,293,294,295,296,297,298,299,300,301,302,303,304,305,306,307,308,309,310,311,312,313,314,315,316,317,318,319,320,321,322,323,324,325,326,327,328,329,330,331,332,333,334,335,336,337,338,339,340,341,342,343,344,345,346,347,348,349,350,351,352,353,354,355,356,357,358,359,360,361,362,363,364,365,366,367,368,369,370,371,372,373,374,375,376,377,378,379,380,381,382,383,384,385,386,387,388,389,390,391,392,393,394,395,396,397,398,399,400,401,402,403,404,405,406,407,408,409,410,411,412,413,414,415,416,417,418,419,420,421,422,423,424,425,426,427,428,429,430,431,432,433,434,435,436,437,438,439,440,441,442,443,444,445,446,447,448,449,450,451,452,453,454,455,456,457,458,459,460,461,462,463,464,465,466,467,468,469,470,471,472,473,474,475,476,477,478,479,480,481,482,483,484,485,486,487,488,489,490,491,492,493,494,495,496,497,498,499,500,501,502,503,504,505,506,507,508,509,510,511,512,513,514,515,516,517,518,519,520,521,522,523,524,525,526,527,528,529,530,531,532,533,534,535,536,537,538,539,540,541,542,543,544,545,546,547,548,549,550,551,552,553,554,555,556,557,558,559,560,561,562,563,564,565,566,567,568,569,570,571,572,573,574,575,576,577,578,579,580,581,582,583,584,585,586,587,588,589,590,591,592,593,594,595,596,597,598,599,600,601,602,603,604,605,606,607,608,609,610,611,612,613,614,615,616,617,618,619,620,621,622,623,624,625,626,627,628,629,630,631,632,633,634,635,636,637,638,639,640,641,642,643,644,645,646,647,648,649],"tree_info":[0,0,0,0,0,0,0,0,0,0,0,0,0,0,0,0,0,0,0,0,0,0,0,0,0,0,0,0,0,0,0,0,0,0,0,0,0,0,0,0,0,0,0,0,0,0,0,0,0,0,0,0,0,0,0,0,0,0,0,0,0,0,0,0,0,0,0,0,0,0,0,0,0,0,0,0,0,0,0,0,0,0,0,0,0,0,0,0,0,0,0,0,0,0,0,0,0,0,0,0,0,0,0,0,0,0,0,0,0,0,0,0,0,0,0,0,0,0,0,0,0,0,0,0,0,0,0,0,0,0,0,0,0,0,0,0,0,0,0,0,0,0,0,0,0,0,0,0,0,0,0,0,0,0,0,0,0,0,0,0,0,0,0,0,0,0,0,0,0,0,0,0,0,0,0,0,0,0,0,0,0,0,0,0,0,0,0,0,0,0,0,0,0,0,0,0,0,0,0,0,0,0,0,0,0,0,0,0,0,0,0,0,0,0,0,0,0,0,0,0,0,0,0,0,0,0,0,0,0,0,0,0,0,0,0,0,0,0,0,0,0,0,0,0,0,0,0,0,0,0,0,0,0,0,0,0,0,0,0,0,0,0,0,0,0,0,0,0,0,0,0,0,0,0,0,0,0,0,0,0,0,0,0,0,0,0,0,0,0,0,0,0,0,0,0,0,0,0,0,0,0,0,0,0,0,0,0,0,0,0,0,0,0,0,0,0,0,0,0,0,0,0,0,0,0,0,0,0,0,0,0,0,0,0,0,0,0,0,0,0,0,0,0,0,0,0,0,0,0,0,0,0,0,0,0,0,0,0,0,0,0,0,0,0,0,0,0,0,0,0,0,0,0,0,0,0,0,0,0,0,0,0,0,0,0,0,0,0,0,0,0,0,0,0,0,0,0,0,0,0,0,0,0,0,0,0,0,0,0,0,0,0,0,0,0,0,0,0,0,0,0,0,0,0,0,0,0,0,0,0,0,0,0,0,0,0,0,0,0,0,0,0,0,0,0,0,0,0,0,0,0,0,0,0,0,0,0,0,0,0,0,0,0,0,0,0,0,0,0,0,0,0,0,0,0,0,0,0,0,0,0,0,0,0,0,0,0,0,0,0,0,0,0,0,0,0,0,0,0,0,0,0,0,0,0,0,0,0,0,0,0,0,0,0,0,0,0,0,0,0,0,0,0,0,0,0,0,0,0,0,0,0,0,0,0,0,0,0,0,0,0,0,0,0,0,0,0,0,0,0,0,0,0,0,0,0,0,0,0,0,0,0,0,0,0,0,0,0,0,0,0,0,0,0,0,0,0,0,0,0,0,0,0,0,0,0,0,0,0,0,0,0,0,0,0,0,0,0,0,0,0,0,0,0,0,0,0,0,0,0,0,0,0,0,0,0,0,0,0,0,0,0,0,0,0,0,0,0,0,0,0,0,0,0,0,0,0,0,0,0,0,0,0,0,0,0,0,0,0],"trees":[{"base_weights":[-7.7307886E-1,-3.201145E1,1.4770583E2,-4.4524647E1,-1.1891359E0,3.19566E0,8.572997E0,-2.130005E0,-1.0678899E0,1.3240838E1,-1.4191902E0,-2.0832458E0,1.1025655E0,1.140707E0,-3.1862384E-1,-2.7767748E-2,1.3870886E-1],"categories":[],"categories_nodes":[],"categories_segments":[],"categories_sizes":[],"default_left":[0,0,0,0,0,0,0,0,0,0,0,0,0,0,0,0,0],"id":0,"left_children":[1,3,5,7,9,-1,-1,-1,-1,11,-1,13,-1,15,-1,-1,-1],"loss_changes":[2.1344905E5,1.4603113E4,1.6110875E4,1.6500586E3,6.0122793E3,0E0,0E0,0E0,0E0,1.8022119E3,0E0,9.569136E1,0E0,1.7334568E1,0E0,0E0,0E0],"parents":[2147483647,0,0,1,1,2,2,3,3,4,4,9,9,11,11,13,13],"right_children":[2,4,6,8,10,-1,-1,-1,-1,12,-1,14,-1,16,-1,-1,-1],"split_conditions":[1.2596177E-1,8.438044E-2,6.3996755E-2,2.7492125E-2,3.151064E-2,3.19566E0,8.572997E0,-2.130005E0,-1.0678899E0,5.549032E-2,-1.4191902E0,7.913839E-2,1.1025655E0,5.3465698E-2,-3.1862384E-1,-2.7767748E-2,1.3870886E-1],"split_indices":[4,4,0,5,0,0,0,0,0,5,0,2,0,5,0,0,0],"split_type":[0,0,0,0,0,0,0,0,0,0,0,0,0,0,0,0,0],"sum_hessian":[4.4E1,3.7E1,7E0,2.6E1,1.1E1,4E0,3E0,1.9E1,7E0,8E0,3E0,4E0,4E0,3E0,1E0,2E0,1E0],"tree_param":{"num_deleted":"0","num_feature":"11","num_nodes":"17","size_leaf_vector":"1"}},{"base_weights":[-9.139091E0,-3.97606E1,3.462887E1,-2.0580924E0,-2.0024292E1,1.7765179E1,6.476E0,-2.1082337E-1,-9.056648E-1,4.445838E1,-1.4521153E0,9.753542E0,2.675773E0,1.9769821E0,6.0746205E-1,-9.599442E-3,1.3575831E-1],"categories":[],"categories_nodes":[],"categories_segments":[],"categories_sizes":[],"default_left":[0,0,0,0,0,0,0,0,0,0,0,0,0,0,0,0,0],"id":1,"left_children":[1,3,5,-1,7,9,-1,-1,-1,11,-1,13,-1,15,-1,-1,-1],"loss_changes":[5.498651E4,3.1127305E3,3.1008201E4,0E0,6.594409E1,2.368286E4,0E0,0E0,0E0,6.425295E3,0E0,1.4773026E2,0E0,8.742902E0,0E0,0E0,0E0],"parents":[2147483647,0,0,1,1,2,2,4,4,5,5,9,9,11,11,13,13],"right_children":[2,4,6,-1,8,10,-1,-1,-1,12,-1,14,-1,16,-1,-1,-1],"split_conditions":[4.5572907E-2,2.7000826E-2,8.5376464E-2,-2.0580924E0,1.9314084E-2,4.7825545E-2,6.476E0,-2.1082337E-1,-9.056648E-1,6.0946338E-2,-1.4521153E0,3.4092244E-2,2.675773E0,1.9317092E-2,6.0746205E-1,-9.599442E-3,1.3575831E-1],"split_indices":[5,5,0,0,0,0,0,0,0,5,0,1,0,0,0,0,0],"split_type":[0,0,0,0,0,0,0,0,0,0,0,0,0,0,0,0,0],"sum_hessian":[3.9E1,2.3E1,1.6E1,1.5E1,8E0,1.5E1,1E0,1E0,7E0,1E1,5E0,4E0,6E0,2E0,2E0,1E0,1E0],"tree_param":{"num_deleted":"0","num_feature":"11","num_nodes":"17","size_leaf_vector":"1"}},{"base_weights":[-3.708508E0,-2.6162924E1,1.3537848E2,-4.2077805E1,2.9885063E0,2.2608104E0,6.9434166E0,-1.9953806E0,-8.4168744E-1,1.4878394E1,-1.2956687E0,-3.284846E0,3.0561903E1,-3.326137E-1,9.365101E-1,1.4129282E0,3.6822557E-1,-8.334783E-1,1.3287057E-1,-9.395285E-3,-4.379219E-2],"categories":[],"categories_nodes":[],"categories_segments":[],"categories_sizes":[],"default_left":[0,0,0,0,0,0,0,0,0,0,0,0,0,0,0,0,0,0,0,0,0],"id":2,"left_children":[1,3,5,7,9,-1,-1,-1,-1,11,-1,13,15,-1,17,-1,-1,19,-1,-1,-1],"loss_changes":[1.3471283E5,1.7291582E4,5.059625E3,1.6537773E3,6.0202227E3,0E0,0E0,0E0,0E0,3.2338875E3,0E0,1.2214774E2,6.087256E1,0E0,1.808508E1,0E0,0E0,1.3270473E-1,0E0,0E0,0E0],"parents":[2147483647,0,0,1,1,2,2,3,3,4,4,9,9,11,11,12,12,14,14,17,17],"right_children":[2,4,6,8,10,-1,-1,-1,-1,12,-1,14,16,-1,18,-1,-1,20,-1,-1,-1],"split_conditions":[1.1869961E-1,3.9025426E-2,6.3996755E-2,2.7492125E-2,3.5423916E-2,2.2608104E0,6.9434166E0,-1.9953806E0,-8.4168744E-1,5.549032E-2,-1.2956687E0,4.5572907E-2,7.038447E-2,-3.326137E-1,5.3465698E-2,1.4129282E0,3.6822557E-1,1.9317092E-2,1.3287057E-1,-9.395285E-3,-4.379219E-2],"split_indices":[4,5,0,5,0,0,0,0,0,5,0,5,2,0,5,0,0,0,0,0,0],"split_type":[0,0,0,0,0,0,0,0,0,0,0,0,0,0,0,0,0,0,0,0,0],"sum_hessian":[4.1E1,3.6E1,5E0,2.3E1,1.3E1,2E0,3E0,1.8E1,5E0,1E1,3E0,5E0,5E0,2E0,3E0,4E0,1E0,2E0,1E0,1E0,1E0],"tree_param":{"num_deleted":"0","num_feature":"11","num_nodes":"21","size_leaf_vector":"1"}},{"base_weights":[-4.1503606E0,-2.4238934E1,1.3046518E2,-4.0591045E1,2.7222016E-1,2.0388868E0,6.796323E0,-1.9340501E0,-9.473487E-1,1.7680527E1,-1.4715375E0,-1.1860727E0,1.5632187E0,3.269581E-1,-6.2717614E0,-4.099907E-1,-8.157501E-1,-9.195509E-3,-4.286066E-2],"categories":[],"categories_nodes":[],"categories_segments":[],"categories_sizes":[],"default_left":[0,0,0,0,0,0,0,0,0,0,0,0,0,0,0,0,0,0,0],"id":3,"left_children":[1,3,5,7,9,-1,-1,-1,-1,11,-1,13,-1,-1,15,-1,17,-1,-1],"loss_changes":[1.2485288E5,1.6043414E4,6.848289E3,1.1294258E3,1.0928662E4,0E0,0E0,0E0,0E0,4.3597188E3,0E0,3.6402518E2,0E0,0E0,8.394742E1,0E0,1.2711465E-1,0E0,0E0],"parents":[2147483647,0,0,1,1,2,2,3,3,4,4,9,9,11,11,14,14,16,16],"right_children":[2,4,6,8,10,-1,-1,-1,-1,12,-1,14,-1,-1,16,-1,18,-1,-1],"split_conditions":[1.2596177E-1,2.4718447E-2,3.0875918E-2,2.7720103E-2,3.924511E-2,2.0388868E0,6.796323E0,-1.9340501E0,-9.473487E-1,3.9463237E-2,-1.4715375E0,2.758572E-5,1.5632187E0,3.269581E-1,8.605153E-2,-4.099907E-1,1.9317092E-2,-9.195509E-3,-4.286066E-2],"split_indices":[4,10,0,6,0,0,0,0,0,10,0,9,0,0,3,0,0,0,0],"split_type":[0,0,0,0,0,0,0,0,0,0,0,0,0,0,0,0,0,0,0],"sum_hessian":[4.4E1,3.9E1,5E0,2.3E1,1.6E1,2E0,3E0,1.7E1,6E0,1.1E1,5E0,6E0,5E0,2E0,4E0,2E0,2E0,1E0,1E0],"tree_param":{"num_deleted":"0","num_feature":"11","num_nodes":"19","size_leaf_vector":"1"}},{"base_weights":[9.017483E0,-1.9282349E1,1.451856E2,-3.7871185E1,9.978217E0,3.1545587E0,7.6544375E0,-1.8501025E0,-8.689079E-1,2.1995977E1,-1.0876086E0,-1.2020022E0,1.7667065E0,-4.76555E0,3.5343814E-1,-3.0393207E-1,-7.983983E-1,-8.999953E-3,-4.194893E-2],"categories":[],"categories_nodes":[],"categories_segments":[],"categories_sizes":[],"default_left":[0,0,0,0,0,0,0,0,0,0,0,0,0,0,0,0,0,0,0],"id":4,"left_children":[1,3,5,7,9,-1,-1,-1,-1,11,-1,13,-1,15,-1,-1,17,-1,-1],"loss_changes":[1.5694089E5,1.8871164E4,3.9320781E3,1.1697695E3,6.542459E3,0E0,0E0,0E0,0E0,5.0340444E3,0E0,2.4292487E2,0E0,4.1478127E1,0E0,0E0,1.2176132E-1,0E0,0E0],"parents":[2147483647,0,0,1,1,2,2,3,3,4,4,9,9,11,11,13,13,16,16],"right_children":[2,4,6,8,10,-1,-1,-1,-1,12,-1,14,-1,16,-1,-1,18,-1,-1],"split_conditions":[1.2753867E-1,3.683632E-2,8.526993E-2,2.7492125E-2,3.924511E-2,3.1545587E0,7.6544375E0,-1.8501025E0,-8.689079E-1,6.0946338E-2,-1.0876086E0,4.5827437E-2,1.7667065E0,4.5572907E-2,3.5343814E-1,-3.0393207E-1,1.9317092E-2,-8.999953E-3,-4.194893E-2],"split_indices":[4,5,0,5,0,0,0,0,0,5,0,1,0,5,0,0,0,0,0],"split_type":[0,0,0,0,0,0,0,0,0,0,0,0,0,0,0,0,0,0,0],"sum_hessian":[3.9E1,3.3E1,6E0,2E1,1.3E1,3E0,3E0,1.4E1,6E0,1E1,3E0,5E0,5E0,4E0,1E0,2E0,2E0,1E0,1E0],"tree_param":{"num_deleted":"0","num_feature":"11","num_nodes":"19","size_leaf_vector":"1"}},{"base_weights":[8.9564764E-1,-1.2475581E1,6.8515606E0,-3.263809E1,2.1539652E1,-1.5996165E0,-1.5924255E1,3.7208374E1,-1.1458521E0,-7.2900945E-1,-1.8407781E-1,1.5576712E1,2.5547254E0,1.2994817E0,8.945728E-1,1.23981625E-1,-4.1056678E-2],"categories":[],"categories_nodes":[],"categories_segments":[],"categories_sizes":[],"default_left":[0,0,0,0,0,0,0,0,0,0,0,0,0,0,0,0,0],"id":5,"left_children":[1,3,-1,5,7,-1,9,11,-1,-1,-1,13,-1,15,-1,-1,-1],"loss_changes":[8.338565E4,2.539298E4,0E0,1.308832E3,1.1635516E4,0E0,2.4224854E1,4.4999727E3,0E0,0E0,0E0,5.174507E2,0E0,1.3783005E1,0E0,0E0,0E0],"parents":[2147483647,0,0,1,1,3,3,4,4,6,6,7,7,11,11,13,13],"right_children":[2,4,-1,6,8,-1,10,12,-1,-1,-1,14,-1,16,-1,-1,-1],"split_conditions":[8.5376464E-2,4.5572907E-2,6.8515606E0,2.9001795E-2,6.3996755E-2,-1.5996165E0,4.3144785E-2,3.151064E-2,-1.1458521E0,-7.2900945E-1,-1.8407781E-1,5.549032E-2,2.5547254E0,2.0674927E-2,8.945728E-1,1.23981625E-1,-4.1056678E-2],"split_indices":[0,5,0,5,0,0,5,0,0,0,0,5,0,0,0,0,0],"split_type":[0,0,0,0,0,0,0,0,0,0,0,0,0,0,0,0,0],"sum_hessian":[3.7E1,3.5E1,2E0,2.2E1,1.3E1,1.6E1,6E0,1E1,3E0,5E0,1E0,6E0,4E0,2E0,4E0,1E0,1E0],"tree_param":{"num_deleted":"0","num_feature":"11","num_nodes":"17","size_leaf_vector":"1"}},{"base_weights":[1.0246328E1,-1.7012339E1,1.3728772E2,-3.3676968E1,1.1216084E1,3.0294077E0,7.191595E0,-1.707174E0,-8.7706035E-1,1.9002113E1,-8.9643115E-1,1.6959025E0,1.4099166E0,-2.7242298E0,2.988238E-1,-1.8016233E-1,-3.4419462E-2],"categories":[],"categories_nodes":[],"categories_segments":[],"categories_sizes":[],"default_left":[0,0,0,0,0,0,0,0,0,0,0,0,0,0,0,0,0],"id":6,"left_children":[1,3,5,7,9,-1,-1,-1,-1,11,-1,13,-1,15,-1,-1,-1],"loss_changes":[1.3739177E5,1.5901455E4,2.6517656E3,9.422539E2,3.668487E3,0E0,0E0,0E0,0E0,2.6354502E3,0E0,1.6044362E2,0E0,8.14628E0,0E0,0E0,0E0],"parents":[2147483647,0,0,1,1,2,2,3,3,4,4,9,9,11,11,13,13],"right_children":[2,4,6,8,10,-1,-1,-1,-1,12,-1,14,-1,16,-1,-1,-1],"split_conditions":[1.2753867E-1,8.177137E-2,8.526993E-2,2.2618787E-2,3.5423916E-2,3.0294077E0,7.191595E0,-1.707174E0,-8.7706035E-1,4.8944376E-2,-8.9643115E-1,4.5924157E-2,1.4099166E0,1.9314084E-2,2.988238E-1,-1.8016233E-1,-3.4419462E-2],"split_indices":[4,4,0,6,0,0,0,0,0,7,0,7,0,0,0,0,0],"split_type":[0,0,0,0,0,0,0,0,0,0,0,0,0,0,0,0,0],"sum_hessian":[3.8E1,3.2E1,6E0,2E1,1.2E1,3E0,3E0,1.2E1,8E0,1E1,2E0,5E0,5E0,3E0,2E0,1E0,2E0],"tree_param":{"num_deleted":"0","num_feature":"11","num_nodes":"17","size_leaf_vector":"1"}},{"base_weights":[-8.863261E0,-2.3375916E1,4.9651494E0,-3.3580074E1,-6.3999705E0,-1.6236387E0,-9.0866226E-1,6.1430297E0,-3.0205978E1,-5.933563E0,8.2559556E-1,-3.5435516E-1,-1.4291224E0,-4.3078077E-1,1.6340383E0,-1.0713704E-2,1.1498801E-1],"categories":[],"categories_nodes":[],"categories_segments":[],"categories_sizes":[],"default_left":[0,0,0,0,0,0,0,0,0,0,0,0,0,0,0,0,0],"id":7,"left_children":[1,3,-1,5,7,-1,-1,9,11,13,-1,-1,-1,-1,15,-1,-1],"loss_changes":[7.015712E4,5.674748E3,0E0,3.6154102E2,4.365939E3,0E0,0E0,1.7169043E3,9.064746E1,2.0690048E2,0E0,0E0,0E0,0E0,6.727852E0,0E0,0E0],"parents":[2147483647,0,0,1,1,3,3,4,4,7,7,8,8,9,9,14,14],"right_children":[2,4,-1,6,8,-1,-1,10,12,14,-1,-1,-1,-1,16,-1,-1],"split_conditions":[1.2596177E-1,3.0736765E-2,4.9651494E0,2.3576904E-2,3.0955892E-2,-1.6236387E0,-9.0866226E-1,9.34696E-2,3.2213863E-2,4.5572907E-2,8.2559556E-1,-3.5435516E-1,-1.4291224E0,-4.3078077E-1,1.9317092E-2,-1.0713704E-2,1.1498801E-1],"split_indices":[4,7,0,5,0,0,0,4,0,5,0,0,0,0,0,0,0],"split_type":[0,0,0,0,0,0,0,0,0,0,0,0,0,0,0,0,0],"sum_hessian":[3.6E1,3.3E1,3E0,2E1,1.3E1,1.3E1,7E0,9E0,4E0,5E0,4E0,1E0,3E0,3E0,2E0,1E0,1E0],"tree_param":{"num_deleted":"0","num_feature":"11","num_nodes":"17","size_leaf_vector":"1"}},{"base_weights":[-2.0211678E0,-2.3632898E1,1.1250101E2,-1.5262755E0,-1.0145539E1,2.8534849E0,6.411718E0,6.9780803E0,-1.8585524E1,-7.6598577E0,8.453847E-1,-9.071315E0,-1.0824813E0,-4.2750287E-1,-1.0485853E-2,-5.725353E-1,1.2634913E0,1.1254201E-1,-3.191375E-2],"categories":[],"categories_nodes":[],"categories_segments":[],"categories_sizes":[],"default_left":[0,0,0,0,0,0,0,0,0,0,0,0,0,0,0,0,0,0,0],"id":8,"left_children":[1,3,5,-1,7,-1,-1,9,11,13,-1,15,-1,-1,-1,-1,17,-1,-1],"loss_changes":[1.0908469E5,5.745926E3,2.0422188E3,0E0,2.8756296E3,0E0,0E0,1.4733442E3,6.175537E2,6.8364426E1,0E0,3.3434814E2,0E0,0E0,0E0,0E0,1.0332502E1,0E0,0E0],"parents":[2147483647,0,0,1,1,2,2,4,4,7,7,8,8,9,9,11,11,16,16],"right_children":[2,4,6,-1,8,-1,-1,10,12,14,-1,16,-1,-1,-1,-1,18,-1,-1],"split_conditions":[1.2596177E-1,2.9001795E-2,8.526993E-2,-1.5262755E0,1.9784564E-2,2.8534849E0,6.411718E0,8.920232E-2,4.5827437E-2,1.9314084E-2,8.453847E-1,4.3144785E-2,-1.0824813E0,-4.2750287E-1,-1.0485853E-2,-5.725353E-1,2.0674927E-2,1.1254201E-1,-3.191375E-2],"split_indices":[4,5,0,0,0,0,0,4,1,0,0,5,0,0,0,0,0,0,0],"split_type":[0,0,0,0,0,0,0,0,0,0,0,0,0,0,0,0,0,0,0],"sum_hessian":[4.2E1,3.6E1,6E0,1.8E1,1.8E1,4E0,2E0,6E0,1.2E1,3E0,3E0,6E0,6E0,2E0,1E0,4E0,2E0,1E0,1E0],"tree_param":{"num_deleted":"0","num_feature":"11","num_nodes":"19","size_leaf_vector":"1"}},{"base_weights":[3.6485596E0,-2.1756893E1,5.713552E0,-3.0767313E1,-2.577283E0,-1.5223106E0,-8.5525554E-1,1.2346008E0,-1.8053944E1,-3.1642952E0,-1.1212041E0,-2.5292176E-1,1.1014812E-1],"categories":[],"categories_nodes":[],"categories_segments":[],"categories_sizes":[],"default_left":[0,0,0,0,0,0,0,0,0,0,0,0,0],"id":9,"left_children":[1,3,-1,5,7,-1,-1,-1,9,11,-1,-1,-1],"loss_changes":[1.22417125E5,5.2780107E3,0E0,4.0389258E2,5.903217E3,0E0,0E0,0E0,9.053887E2,7.939033E1,0E0,0E0,0E0],"parents":[2147483647,0,0,1,1,3,3,4,4,8,8,9,9],"right_children":[2,4,-1,6,8,-1,-1,-1,10,12,-1,-1,-1],"split_conditions":[1.2596177E-1,8.177137E-2,5.713552E0,5.63653E-2,5.8938805E-2,-1.5223106E0,-8.5525554E-1,1.2346008E0,3.0938717E-2,4.5572907E-2,-1.1212041E0,-2.5292176E-1,1.1014812E-1],"split_indices":[4,4,0,4,2,0,0,0,0,5,0,0,0],"split_type":[0,0,0,0,0,0,0,0,0,0,0,0,0],"sum_hessian":[3.5E1,3E1,5E0,2E1,1E1,1.2E1,8E0,3E0,7E0,3E0,4E0,2E0,1E0],"tree_param":{"num_deleted":"0","num_feature":"11","num_nodes":"13","size_leaf_vector":"1"}},{"base_weights":[5.9638925E0,-9.442448E0,6.4168305E0,-2.850634E1,2.5274677E1,-1.4973804E0,-1.6790926E1,3.4645023E1,-8.777211E-1,-7.9115295E-1,-2.4574846E-1,1.3613282E1,2.272109E0,1.4918289E0,7.72722E-1,-1.2605809E-2,1.0780518E-1],"categories":[],"categories_nodes":[],"categories_segments":[],"categories_sizes":[],"default_left":[0,0,0,0,0,0,0,0,0,0,0,0,0,0,0,0,0],"id":10,"left_children":[1,3,-1,5,7,-1,9,11,-1,-1,-1,13,-1,15,-1,-1,-1],"loss_changes":[9.2932336E4,2.5870545E4,0E0,1.368666E3,6.7369873E3,0E0,1.1136401E2,4.008329E3,0E0,0E0,0E0,3.5898975E2,0E0,6.341797E0,0E0,0E0,0E0],"parents":[2147483647,0,0,1,1,3,3,4,4,6,6,7,7,11,11,13,13],"right_children":[2,4,-1,6,8,-1,10,12,-1,-1,-1,14,-1,16,-1,-1,-1],"split_conditions":[8.5376464E-2,4.5572907E-2,6.4168305E0,2.7000826E-2,6.3996755E-2,-1.4973804E0,3.9025426E-2,6.89265E-2,-8.777211E-1,-7.9115295E-1,-2.4574846E-1,9.25171E-2,2.272109E0,1.9317092E-2,7.72722E-1,-1.2605809E-2,1.0780518E-1],"split_indices":[0,5,0,5,0,0,5,5,0,0,0,3,0,0,0,0,0],"split_type":[0,0,0,0,0,0,0,0,0,0,0,0,0,0,0,0,0],"sum_hessian":[4E1,3.7E1,3E0,2.4E1,1.3E1,1.4E1,1E1,1.1E1,2E0,8E0,2E0,6E0,5E0,2E0,4E0,1E0,1E0],"tree_param":{"num_deleted":"0","num_feature":"11","num_nodes":"17","size_leaf_vector":"1"}},{"base_weights":[4.595537E-1,-1.7856977E1,5.7819605E0,-2.9717909E1,6.326119E0,-1.4230968E0,-7.488962E-1,3.0527292E1,-1.1484993E0,2.926161E-1,1.5853047E0],"categories":[],"categories_nodes":[],"categories_segments":[],"categories_sizes":[],"default_left":[0,0,0,0,0,0,0,0,0,0,0],"id":11,"left_children":[1,3,-1,5,7,-1,-1,9,-1,-1,-1],"loss_changes":[1.041472E5,1.0800858E4,0E0,5.4178906E2,1.1307923E4,0E0,0E0,1.0182202E3,0E0,0E0,0E0],"parents":[2147483647,0,0,1,1,3,3,4,4,7,7],"right_children":[2,4,-1,6,8,-1,-1,10,-1,-1,-1],"split_conditions":[1.0757105E-1,3.9025426E-2,5.7819605E0,2.7000826E-2,4.7825545E-2,-1.4230968E0,-7.488962E-1,6.0946338E-2,-1.1484993E0,2.926161E-1,1.5853047E0],"split_indices":[1,5,0,5,0,0,0,5,0,0,0],"split_type":[0,0,0,0,0,0,0,0,0,0,0],"sum_hessian":[4E1,3.6E1,4E0,2.4E1,1.2E1,1.7E1,7E0,7E0,5E0,2E0,5E0],"tree_param":{"num_deleted":"0","num_feature":"11","num_nodes":"11","size_leaf_vector":"1"}},{"base_weights":[-6.676352E-1,-1.8520605E1,3.7732112E0,-2.8676683E1,-1.2381524E0,-1.426192E0,-8.8411397E-1,1.0185055E1,-1.0140847E0,-3.0298977E0,1.0212765E0,-2.915853E-1,5.9562683E-1,-3.2405805E-2,9.92877E-2],"categories":[],"categories_nodes":[],"categories_segments":[],"categories_sizes":[],"default_left":[0,0,0,0,0,0,0,0,0,0,0,0,0,0,0],"id":12,"left_children":[1,3,-1,5,7,-1,-1,9,-1,11,-1,-1,13,-1,-1],"loss_changes":[6.70518E4,6.1077637E3,0E0,1.4520117E2,3.8568884E3,0E0,0E0,1.8991655E3,0E0,8.72679E1,0E0,0E0,1.1215243E1,0E0,0E0],"parents":[2147483647,0,0,1,1,3,3,4,4,7,7,9,9,12,12],"right_children":[2,4,-1,6,8,-1,-1,10,-1,12,-1,-1,14,-1,-1],"split_conditions":[1.2596177E-1,3.0736765E-2,3.7732112E0,5.810026E-2,3.924511E-2,-1.426192E0,-8.8411397E-1,5.549032E-2,-1.0140847E0,8.605153E-2,1.0212765E0,-2.915853E-1,5.3465698E-2,-3.2405805E-2,9.92877E-2],"split_indices":[4,7,0,3,0,0,0,5,0,3,0,0,5,0,0],"split_type":[0,0,0,0,0,0,0,0,0,0,0,0,0,0,0],"sum_hessian":[4E1,3.4E1,6E0,2.1E1,1.3E1,1.1E1,1E1,9E0,4E0,5E0,4E0,2E0,3E0,2E0,1E0],"tree_param":{"num_deleted":"0","num_feature":"11","num_nodes":"15","size_leaf_vector":"1"}},{"base_weights":[-9.266067E0,-1.5718452E1,4.8811693E0,-2.6680868E1,4.1970057E0,-1.3326644E0,-6.5767986E-1,1.4009981E1,-2.3837929E1,-2.4585521E0,2.8143518E1,-3.092322E-1,-1.1460143E0,-2.4248324E-1,5.870056E-1,1.3145717E0,3.0546382E-1,-3.1486824E-2,9.71757E-2],"categories":[],"categories_nodes":[],"categories_segments":[],"categories_sizes":[],"default_left":[0,0,0,0,0,0,0,0,0,0,0,0,0,0,0,0,0,0,0],"id":13,"left_children":[1,3,-1,5,7,-1,-1,9,11,13,15,-1,-1,-1,17,-1,-1,-1,-1],"loss_changes":[3.2207645E4,8.189876E3,0E0,7.665879E2,4.1854546E3,0E0,0E0,2.6295376E3,9.659668E0,6.2573845E1,1.24859375E2,0E0,0E0,0E0,1.0700181E1,0E0,0E0,0E0,0E0],"parents":[2147483647,0,0,1,1,3,3,4,4,7,7,8,8,9,9,10,10,14,14],"right_children":[2,4,-1,6,8,-1,-1,10,12,14,16,-1,-1,-1,18,-1,-1,-1,-1],"split_conditions":[1.0757105E-1,3.999392E-2,4.8811693E0,1.9650241E-2,4.6436343E-2,-1.3326644E0,-6.5767986E-1,9.620641E-2,9.1652244E-2,4.9359202E-2,4.0406656E-2,-3.092322E-1,-1.1460143E0,-2.4248324E-1,4.5924157E-2,1.3145717E0,3.0546382E-1,-3.1486824E-2,9.71757E-2],"split_indices":[1,6,0,7,1,0,0,4,1,6,1,0,0,0,7,0,0,0,0],"split_type":[0,0,0,0,0,0,0,0,0,0,0,0,0,0,0,0,0,0,0],"sum_hessian":[3.7E1,3.6E1,1E0,2.3E1,1.3E1,1.5E1,8E0,1E1,3E0,5E0,5E0,1E0,2E0,2E0,3E0,4E0,1E0,2E0,1E0],"tree_param":{"num_deleted":"0","num_feature":"11","num_nodes":"19","size_leaf_vector":"1"}},{"base_weights":[4.8462114E0,-1.1435401E1,5.290633E0,-2.3959011E1,1.3528109E1,-1.2375605E0,-1.335364E1,2.5485495E1,-8.4010464E-1,-5.9959143E-1,-1.423298E-1,4.6924496E0,1.4348102E0,-1.7203076E-2,2.7764058E-1],"categories":[],"categories_nodes":[],"categories_segments":[],"categories_sizes":[],"default_left":[0,0,0,0,0,0,0,0,0,0,0,0,0,0,0],"id":14,"left_children":[1,3,-1,5,7,-1,9,11,-1,-1,-1,13,-1,-1,-1],"loss_changes":[8.120369E4,1.189155E4,0E0,9.7192676E2,5.675815E3,0E0,2.6934692E1,1.5552856E3,0E0,0E0,0E0,4.002384E1,0E0,0E0,0E0],"parents":[2147483647,0,0,1,1,3,3,4,4,6,6,7,7,11,11],"right_children":[2,4,-1,6,8,-1,10,12,-1,-1,-1,14,-1,-1,-1],"split_conditions":[1.01102784E-1,4.5572907E-2,5.290633E0,2.7492125E-2,3.924511E-2,-1.2375605E0,4.3144785E-2,6.0143657E-2,-8.4010464E-1,-5.9959143E-1,-1.423298E-1,1.9317092E-2,1.4348102E0,-1.7203076E-2,2.7764058E-1],"split_indices":[1,5,0,5,0,0,5,5,0,0,0,0,0,0,0],"split_type":[0,0,0,0,0,0,0,0,0,0,0,0,0,0,0],"sum_hessian":[4E1,3.6E1,4E0,2.4E1,1.2E1,1.5E1,9E0,9E0,3E0,8E0,1E0,3E0,6E0,1E0,2E0],"tree_param":{"num_deleted":"0","num_feature":"11","num_nodes":"15","size_leaf_vector":"1"}},{"base_weights":[-1.6464891E0,-1.5080728E1,7.343662E1,-2.419908E1,1.1219074E0,1.1908108E0,3.6593702E0,-1.2106435E0,-6.366984E-1,1.6503141E1,-2.4700468E1,3.5880375E0,1.2209991E0,-2.847844E-1,-1.1470722E0,-3.3717155E0,7.910843E0,-1.683712E-2,-1.9832508E-1,8.9202866E-2,3.892616E-1],"categories":[],"categories_nodes":[],"categories_segments":[],"categories_sizes":[],"default_left":[0,0,0,0,0,0,0,0,0,0,0,0,0,0,0,0,0,0,0,0,0],"id":15,"left_children":[1,3,5,7,9,-1,-1,-1,-1,11,13,15,-1,-1,-1,17,19,-1,-1,-1,-1],"loss_changes":[4.649828E4,5.7890615E3,1.59425E3,5.569824E2,6.3653354E3,0E0,0E0,0E0,0E0,1.4723408E3,6.393872E1,2.0718707E2,0E0,0E0,0E0,9.672676E0,9.630981E0,0E0,0E0,0E0,0E0],"parents":[2147483647,0,0,1,1,2,2,3,3,4,4,9,9,10,10,11,11,15,15,16,16],"right_children":[2,4,6,8,10,-1,-1,-1,-1,12,14,16,-1,-1,-1,18,20,-1,-1,-1,-1],"split_conditions":[1.2596177E-1,8.438044E-2,3.0875918E-2,2.7000826E-2,3.924511E-2,1.1908108E0,3.6593702E0,-1.2106435E0,-6.366984E-1,6.0946338E-2,1.1645017E-1,5.2162312E-2,1.2209991E0,-2.847844E-1,-1.1470722E0,1.9317092E-2,9.336806E-2,-1.683712E-2,-1.9832508E-1,8.9202866E-2,3.892616E-1],"split_indices":[4,4,0,5,0,0,0,0,0,5,2,5,0,0,0,0,4,0,0,0,0],"split_type":[0,0,0,0,0,0,0,0,0,0,0,0,0,0,0,0,0,0,0,0,0],"sum_hessian":[4.4E1,3.8E1,6E0,2.4E1,1.4E1,2E0,4E0,1.5E1,9E0,9E0,5E0,5E0,4E0,1E0,4E0,2E0,3E0,1E0,1E0,1E0,2E0],"tree_param":{"num_deleted":"0","num_feature":"11","num_nodes":"21","size_leaf_vector":"1"}},{"base_weights":[5.3574276E0,-1.4851405E1,9.5627495E1,-2.3172604E1,6.16701E0,2.1364613E0,5.4659033E0,-1.2666657E0,-1.6346588E1,2.421763E1,-8.651994E-1,-7.173698E-1,-1.9410643E-1,2.629812E-1,1.2846037E0],"categories":[],"categories_nodes":[],"categories_segments":[],"categories_sizes":[],"default_left":[0,0,0,0,0,0,0,0,0,0,0,0,0,0,0],"id":16,"left_children":[1,3,5,7,9,-1,-1,-1,11,13,-1,-1,-1,-1,-1],"loss_changes":[7.986306E4,6.439249E3,5.4822266E3,6.848994E2,5.7551235E3,0E0,0E0,0E0,1.4236572E1,5.6808936E2,0E0,0E0,0E0,0E0,0E0],"parents":[2147483647,0,0,1,1,2,2,3,3,4,4,8,8,9,9],"right_children":[2,4,6,8,10,-1,-1,-1,12,14,-1,-1,-1,-1,-1],"split_conditions":[1.2753867E-1,4.3144785E-2,8.526993E-2,5.810026E-2,3.924511E-2,2.1364613E0,5.4659033E0,-1.2666657E0,1.0449833E-1,9.5737055E-2,-8.651994E-1,-7.173698E-1,-1.9410643E-1,2.629812E-1,1.2846037E0],"split_indices":[4,5,0,3,0,0,0,0,3,4,0,0,0,0,0],"split_type":[0,0,0,0,0,0,0,0,0,0,0,0,0,0,0],"sum_hessian":[4.2E1,3.5E1,7E0,2.5E1,1E1,4E0,3E0,1.1E1,1.4E1,6E0,4E0,1.3E1,1E0,2E0,4E0],"tree_param":{"num_deleted":"0","num_feature":"11","num_nodes":"15","size_leaf_vector":"1"}},{"base_weights":[-2.6929078E0,-1.42397585E1,3.2612882E0,-2.2513079E1,3.3240068E0,-1.2082454E0,-6.6013104E-1,1.7330162E1,-1.0785863E0,-8.4285164E-1,2.5239002E1,-2.404269E0,8.171153E-2,3.015725E-1,1.1521634E0,-1.3135287E-1,-2.2072824E-2],"categories":[],"categories_nodes":[],"categories_segments":[],"categories_sizes":[],"default_left":[0,0,0,0,0,0,0,0,0,0,0,0,0,0,0,0,0],"id":17,"left_children":[1,3,-1,5,7,-1,-1,9,-1,11,13,15,-1,-1,-1,-1,-1],"loss_changes":[4.323999E4,6.0325703E3,0E0,7.126699E2,6.0625576E3,0E0,0E0,1.4585476E3,0E0,2.1878109E1,4.2251465E1,2.262949E0,0E0,0E0,0E0,0E0,0E0],"parents":[2147483647,0,0,1,1,3,3,4,4,7,7,9,9,10,10,11,11],"right_children":[2,4,-1,6,8,-1,-1,10,-1,12,14,16,-1,-1,-1,-1,-1],"split_conditions":[1.2753867E-1,3.9025426E-2,3.2612882E0,5.810026E-2,3.924511E-2,-1.2082454E0,-6.6013104E-1,9.336806E-2,-1.0785863E0,1.9317092E-2,9.5737055E-2,1.9314084E-2,8.171153E-2,3.015725E-1,1.1521634E0,-1.3135287E-1,-2.2072824E-2],"split_indices":[4,5,0,3,0,0,0,4,0,0,4,0,0,0,0,0,0],"split_type":[0,0,0,0,0,0,0,0,0,0,0,0,0,0,0,0,0],"sum_hessian":[4.5E1,4E1,5E0,2.7E1,1.3E1,1.3E1,1.4E1,9E0,4E0,3E0,6E0,2E0,1E0,1E0,5E0,1E0,1E0],"tree_param":{"num_deleted":"0","num_feature":"11","num_nodes":"17","size_leaf_vector":"1"}},{"base_weights":[5.9255595E0,-1.2338453E1,8.965592E1,-2.1174353E1,5.6027746E0,1.952754E0,5.1874456E0,-1.0456847E0,-5.2707213E-1,1.2965592E1,-6.043157E-1,6.1153567E-1,8.976359E-1,-1.4884363E-1,1.9220412E-1],"categories":[],"categories_nodes":[],"categories_segments":[],"categories_sizes":[],"default_left":[0,0,0,0,0,0,0,0,0,0,0,0,0,0,0],"id":18,"left_children":[1,3,5,7,9,-1,-1,-1,-1,11,-1,13,-1,-1,-1],"loss_changes":[6.839332E4,5.9841304E3,5.7020625E3,4.433838E2,2.0801055E3,0E0,0E0,0E0,0E0,9.9198987E2,0E0,9.6087685E1,0E0,0E0,0E0],"parents":[2147483647,0,0,1,1,2,2,3,3,4,4,9,9,11,11],"right_children":[2,4,6,8,10,-1,-1,-1,-1,12,-1,14,-1,-1,-1],"split_conditions":[1.2753867E-1,4.3144785E-2,8.526993E-2,2.7492125E-2,3.5423916E-2,1.952754E0,5.1874456E0,-1.0456847E0,-5.2707213E-1,4.8944376E-2,-6.043157E-1,5.3465698E-2,8.976359E-1,-1.4884363E-1,1.9220412E-1],"split_indices":[4,5,0,5,0,0,0,0,0,7,0,5,0,0,0],"split_type":[0,0,0,0,0,0,0,0,0,0,0,0,0,0,0],"sum_hessian":[4.3E1,3.6E1,7E0,2.4E1,1.2E1,4E0,3E0,1.6E1,8E0,9E0,3E0,4E0,5E0,2E0,2E0],"tree_param":{"num_deleted":"0","num_feature":"11","num_nodes":"15","size_leaf_vector":"1"}},{"base_weights":[4.175258E0,-1.3678483E1,9.2847496E1,-2.071986E1,-1.6364253E0,1.8905203E0,5.02193E0,-1.0735344E0,-5.4365313E-1,9.712395E0,-1.0213103E0,-3.9541695E0,1.9482466E1,-1.843727E-2,-2.0105706E-1,2.0424426E-1,9.129034E-1],"categories":[],"categories_nodes":[],"categories_segments":[],"categories_sizes":[],"default_left":[0,0,0,0,0,0,0,0,0,0,0,0,0,0,0,0,0],"id":19,"left_children":[1,3,5,7,9,-1,-1,-1,-1,11,-1,13,15,-1,-1,-1,-1],"loss_changes":[6.617839E4,2.9338374E3,3.2927578E3,4.6620215E2,3.7874434E3,0E0,0E0,0E0,0E0,1.41227E3,0E0,1.1539413E1,7.105322E1,0E0,0E0,0E0,0E0],"parents":[2147483647,0,0,1,1,2,2,3,3,4,4,9,9,11,11,12,12],"right_children":[2,4,6,8,10,-1,-1,-1,-1,12,-1,14,16,-1,-1,-1,-1],"split_conditions":[1.2753867E-1,3.9025426E-2,8.526993E-2,5.810026E-2,3.924511E-2,1.8905203E0,5.02193E0,-1.0735344E0,-5.4365313E-1,9.620641E-2,-1.0213103E0,6.0701266E-2,6.0946338E-2,-1.843727E-2,-2.0105706E-1,2.0424426E-1,9.129034E-1],"split_indices":[4,5,0,3,0,0,0,0,0,4,0,2,5,0,0,0,0],"split_type":[0,0,0,0,0,0,0,0,0,0,0,0,0,0,0,0,0],"sum_hessian":[4E1,3.4E1,6E0,2.1E1,1.3E1,3E0,3E0,1.2E1,9E0,9E0,4E0,4E0,5E0,1E0,3E0,1E0,4E0],"tree_param":{"num_deleted":"0","num_feature":"11","num_nodes":"17","size_leaf_vector":"1"}},{"base_weights":[4.2434476E-2,-7.838591E0,3.437965E0,-1.9635946E1,9.971556E0,-9.553196E-1,-1.0837207E1,2.458326E1,-2.091378E1,-4.9230137E-1,-1.2111596E-1,1.6430832E0,3.584796E1,-2.0280063E-1,-9.8655105E-1,-1.6502508E0,1.8670759E-1,4.2952466E-1,1.6202098E0,-1.8045021E-2,-8.726386E-2],"categories":[],"categories_nodes":[],"categories_segments":[],"categories_sizes":[],"default_left":[0,0,0,0,0,0,0,0,0,0,0,0,0,0,0,0,0,0,0,0,0],"id":20,"left_children":[1,3,-1,5,7,-1,9,11,13,-1,-1,15,17,-1,-1,19,-1,-1,-1,-1,-1],"loss_changes":[2.8641639E4,8.810419E3,0E0,3.768828E2,8.1860146E3,0E0,1.402301E1,3.0420698E3,1.0995044E2,0E0,0E0,5.245404E1,7.622754E1,0E0,0E0,6.047907E-1,0E0,0E0,0E0,0E0,0E0],"parents":[2147483647,0,0,1,1,3,3,4,4,6,6,7,7,8,8,11,11,12,12,15,15],"right_children":[2,4,-1,6,8,-1,10,12,14,-1,-1,16,18,-1,-1,20,-1,-1,-1,-1,-1],"split_conditions":[1.0757105E-1,4.9359202E-2,3.437965E0,2.7720103E-2,6.3996755E-2,-9.553196E-1,4.4551756E-2,6.477637E-2,9.1652244E-2,-4.9230137E-1,-1.2111596E-1,4.5924157E-2,1.824988E-2,-2.0280063E-1,-9.8655105E-1,1.9317092E-2,1.8670759E-1,4.2952466E-1,1.6202098E0,-1.8045021E-2,-8.726386E-2],"split_indices":[1,6,0,6,0,0,6,6,1,0,0,7,0,0,0,0,0,0,0,0,0],"split_type":[0,0,0,0,0,0,0,0,0,0,0,0,0,0,0,0,0,0,0,0,0],"sum_hessian":[4.3E1,4E1,3E0,2.4E1,1.6E1,1.7E1,7E0,1.1E1,5E0,6E0,1E0,4E0,7E0,1E0,4E0,2E0,2E0,1E0,6E0,1E0,1E0],"tree_param":{"num_deleted":"0","num_feature":"11","num_nodes":"21","size_leaf_vector":"1"}},{"base_weights":[-2.7333994E0,-1.5688327E1,8.590679E1,-1.690409E1,5.1969796E-1,1.5031838E0,4.5879765E0,-8.399979E0,-2.1363586E1,-1.4112518E1,7.981367E0,-1.7043215E-1,-9.3726194E-1,-7.4071825E-1,-3.1190386E-1,-1.7661212E-2,4.645047E-1],"categories":[],"categories_nodes":[],"categories_segments":[],"categories_sizes":[],"default_left":[0,0,0,0,0,0,0,0,0,0,0,0,0,0,0,0,0],"id":21,"left_children":[1,3,5,7,-1,-1,-1,9,11,13,15,-1,-1,-1,-1,-1,-1],"loss_changes":[4.498417E4,1.3599502E3,1.7367266E3,1.07204E3,0E0,0E0,0E0,1.3291654E3,1.5507129E2,9.603198E1,1.0318227E2,0E0,0E0,0E0,0E0,0E0,0E0],"parents":[2147483647,0,0,1,1,2,2,3,3,7,7,8,8,9,9,10,10],"right_children":[2,4,6,8,-1,-1,-1,10,12,14,16,-1,-1,-1,-1,-1,-1],"split_conditions":[1.2753867E-1,1.2596177E-1,6.3996755E-2,2.040445E-2,5.1969796E-1,1.5031838E0,4.5879765E0,8.605153E-2,-2.1240932E-3,5.444363E-2,9.084563E-2,-1.7043215E-1,-9.3726194E-1,-7.4071825E-1,-3.1190386E-1,-1.7661212E-2,4.645047E-1],"split_indices":[4,4,0,0,0,0,0,3,8,2,3,0,0,0,0,0,0],"split_type":[0,0,0,0,0,0,0,0,0,0,0,0,0,0,0,0,0],"sum_hessian":[3.7E1,3.3E1,4E0,3.2E1,1E0,2E0,2E0,1.2E1,2E1,9E0,3E0,1E0,1.9E1,5E0,4E0,1E0,2E0],"tree_param":{"num_deleted":"0","num_feature":"11","num_nodes":"17","size_leaf_vector":"1"}},{"base_weights":[-1.1043899E0,-9.982701E0,7.241777E1,-1.77454E1,1.8199174E0,1.4321612E0,4.013436E0,-9.4191486E-1,-5.1632285E-1,1.2583256E1,-1.4628409E1,-1.1825057E-1,1.736972E1,-2.2217509E-1,-7.66864E-1,3.1069458E-1,1.9935722E1,2.4691667E-1,9.366879E-1],"categories":[],"categories_nodes":[],"categories_segments":[],"categories_sizes":[],"default_left":[0,0,0,0,0,0,0,0,0,0,0,0,0,0,0,0,0,0,0],"id":22,"left_children":[1,3,5,7,9,-1,-1,-1,-1,11,13,-1,15,-1,-1,-1,17,-1,-1],"loss_changes":[2.422202E4,3.0557605E3,2.2229297E2,2.2431494E2,2.6626174E3,0E0,0E0,0E0,0E0,7.1008386E2,9.75968E1,0E0,3.5222412E1,0E0,0E0,0E0,1.931665E1,0E0,0E0],"parents":[2147483647,0,0,1,1,2,2,3,3,4,4,9,9,10,10,12,12,16,16],"right_children":[2,4,6,8,10,-1,-1,-1,-1,12,14,-1,16,-1,-1,-1,18,-1,-1],"split_conditions":[1.2753867E-1,2.4718447E-2,1.3111435E-1,5.810026E-2,2.719788E-2,1.4321612E0,4.013436E0,-9.4191486E-1,-5.1632285E-1,4.5924157E-2,9.1652244E-2,-1.1825057E-1,6.477637E-2,-2.2217509E-1,-7.66864E-1,3.1069458E-1,9.3291774E-2,2.4691667E-1,9.366879E-1],"split_indices":[4,10,1,3,9,0,0,0,0,7,1,0,6,0,0,0,3,0,0],"split_type":[0,0,0,0,0,0,0,0,0,0,0,0,0,0,0,0,0,0,0],"sum_hessian":[3.5E1,3.2E1,3E0,1.9E1,1.3E1,2E0,1E0,9E0,1E1,8E0,5E0,2E0,6E0,2E0,3E0,2E0,4E0,1E0,3E0],"tree_param":{"num_deleted":"0","num_feature":"11","num_nodes":"19","size_leaf_vector":"1"}},{"base_weights":[6.6802955E0,-1.0020367E1,7.6823074E1,-1.7834372E1,1.051668E1,1.6251944E0,4.50501E0,-1.0006298E0,-1.0776202E1,1.7185352E1,-4.5826906E-1,-4.9358082E-1,-1.7680909E-1,8.386117E0,1.2360905E0,-1.4770231E-2,4.3402854E-1],"categories":[],"categories_nodes":[],"categories_segments":[],"categories_sizes":[],"default_left":[0,0,0,0,0,0,0,0,0,0,0,0,0,0,0,0,0],"id":23,"left_children":[1,3,5,7,9,-1,-1,-1,11,13,-1,-1,-1,15,-1,-1,-1],"loss_changes":[4.879846E4,5.643761E3,4.9368164E3,7.499082E2,1.604794E3,0E0,0E0,0E0,2.285498E1,5.9191504E2,0E0,0E0,0E0,9.870532E1,0E0,0E0,0E0],"parents":[2147483647,0,0,1,1,2,2,3,3,4,4,8,8,9,9,13,13],"right_children":[2,4,6,8,10,-1,-1,-1,12,14,-1,-1,-1,16,-1,-1,-1],"split_conditions":[1.1811706E-1,4.5572907E-2,8.526993E-2,4.5805182E-2,3.924511E-2,1.6251944E0,4.50501E0,-1.0006298E0,8.177137E-2,3.0955892E-2,-4.5826906E-1,-4.9358082E-1,-1.7680909E-1,8.920232E-2,1.2360905E0,-1.4770231E-2,4.3402854E-1],"split_indices":[4,5,0,4,0,0,0,0,4,0,0,0,0,4,0,0,0],"split_type":[0,0,0,0,0,0,0,0,0,0,0,0,0,0,0,0,0],"sum_hessian":[4E1,3.3E1,7E0,2.4E1,9E0,4E0,3E0,1.2E1,1.2E1,7E0,2E0,1E1,2E0,5E0,2E0,1E0,4E0],"tree_param":{"num_deleted":"0","num_feature":"11","num_nodes":"17","size_leaf_vector":"1"}},{"base_weights":[3.2170603E0,-7.3447285E0,7.650617E1,-1.4785093E1,3.5614314E0,1.2710216E0,4.1535945E0,-8.0591303E-1,-4.5813063E-1,1.3630188E1,-1.930212E1,6.4989626E-1,2.0954655E1,-1.640761E-1,-9.444143E-1,-1.2991837E-1,1.7599879E-1,4.322148E-1,1.127849E0],"categories":[],"categories_nodes":[],"categories_segments":[],"categories_sizes":[],"default_left":[0,0,0,0,0,0,0,0,0,0,0,0,0,0,0,0,0,0,0],"id":24,"left_children":[1,3,5,7,9,-1,-1,-1,-1,11,13,15,17,-1,-1,-1,-1,-1,-1],"loss_changes":[3.075042E4,2.8927598E3,2.0089277E3,1.4674805E2,3.7162046E3,0E0,0E0,0E0,0E0,1.0321926E3,1.381211E2,7.721044E1,1.505315E2,0E0,0E0,0E0,0E0,0E0,0E0],"parents":[2147483647,0,0,1,1,2,2,3,3,4,4,9,9,10,10,11,11,12,12],"right_children":[2,4,6,8,10,-1,-1,-1,-1,12,14,16,18,-1,-1,-1,-1,-1,-1],"split_conditions":[1.2753867E-1,4.3144785E-2,4.7825545E-2,5.810026E-2,3.924511E-2,1.2710216E0,4.1535945E0,-8.0591303E-1,-4.5813063E-1,3.9463237E-2,7.1328595E-2,5.3465698E-2,1.9784564E-2,-1.640761E-1,-9.444143E-1,-1.2991837E-1,1.7599879E-1,4.322148E-1,1.127849E0],"split_indices":[4,5,0,3,0,0,0,0,0,10,0,5,0,0,0,0,0,0,0],"split_type":[0,0,0,0,0,0,0,0,0,0,0,0,0,0,0,0,0,0,0],"sum_hessian":[3.8E1,3.4E1,4E0,2E1,1.4E1,2E0,2E0,8E0,1.2E1,1E1,4E0,4E0,6E0,1E0,3E0,2E0,2E0,3E0,3E0],"tree_param":{"num_deleted":"0","num_feature":"11","num_nodes":"19","size_leaf_vector":"1"}},{"base_weights":[6.573203E0,-7.9224553E0,7.604166E1,-1.6143343E1,6.5992346E0,1.4325237E0,4.22874E0,-8.806388E-1,-1.0620968E1,1.4584754E1,-1.5014374E1,-4.877999E-1,-1.8137373E-1,6.1695457E0,1.0918629E0,-1.6058595E-1,-7.446096E-1,-1.5385004E0,4.067268E-1,-1.1692458E-2,-8.648521E-2],"categories":[],"categories_nodes":[],"categories_segments":[],"categories_sizes":[],"default_left":[0,0,0,0,0,0,0,0,0,0,0,0,0,0,0,0,0,0,0,0,0],"id":25,"left_children":[1,3,5,7,9,-1,-1,-1,11,13,15,-1,-1,17,-1,-1,-1,19,-1,-1,-1],"loss_changes":[4.0882074E4,4.165493E3,3.580664E3,3.3376367E2,2.4627278E3,0E0,0E0,0E0,1.5596436E1,7.740984E2,4.580371E1,0E0,0E0,1.9767026E2,0E0,0E0,0E0,1.3155656E0,0E0,0E0,0E0],"parents":[2147483647,0,0,1,1,2,2,3,3,4,4,8,8,9,9,10,10,13,13,17,17],"right_children":[2,4,6,8,10,-1,-1,-1,12,14,16,-1,-1,18,-1,-1,-1,20,-1,-1,-1],"split_conditions":[1.2753867E-1,4.3144785E-2,8.526993E-2,5.810026E-2,3.924511E-2,1.4325237E0,4.22874E0,-8.806388E-1,3.011196E-2,6.89265E-2,7.1328595E-2,-4.877999E-1,-1.8137373E-1,5.3465698E-2,1.0918629E0,-1.6058595E-1,-7.446096E-1,1.9317092E-2,4.067268E-1,-1.1692458E-2,-8.648521E-2],"split_indices":[4,5,0,3,0,0,0,0,0,5,0,0,0,5,0,0,0,0,0,0,0],"split_type":[0,0,0,0,0,0,0,0,0,0,0,0,0,0,0,0,0,0,0,0,0],"sum_hessian":[3.9E1,3.3E1,6E0,2.1E1,1.2E1,3E0,3E0,1E1,1.1E1,9E0,3E0,9E0,2E0,6E0,3E0,1E0,2E0,2E0,4E0,1E0,1E0],"tree_param":{"num_deleted":"0","num_feature":"11","num_nodes":"21","size_leaf_vector":"1"}},{"base_weights":[1.2522253E-1,-8.898565E0,5.7255005E1,-1.4558073E1,-2.068615E-1,7.0549995E-1,2.6407306E0,-7.70154E-1,-3.8479733E-1,1.01064E1,-1.908003E1,-1.2009398E0,1.972934E1,-1.5717006E-1,-9.111884E-1,-1.298361E-1,1.7131703E-1,4.0544695E-1,1.138078E0],"categories":[],"categories_nodes":[],"categories_segments":[],"categories_sizes":[],"default_left":[0,0,0,0,0,0,0,0,0,0,0,0,0,0,0,0,0,0,0],"id":26,"left_children":[1,3,5,7,9,-1,-1,-1,-1,11,13,15,17,-1,-1,-1,-1,-1,-1],"loss_changes":[2.267715E4,1.8662375E3,1.4627539E2,2.8577393E2,3.3071333E3,0E0,0E0,0E0,0E0,1.2206023E3,1.3672339E2,7.034995E1,1.747605E2,0E0,0E0,0E0,0E0,0E0,0E0],"parents":[2147483647,0,0,1,1,2,2,3,3,4,4,9,9,10,10,11,11,12,12],"right_children":[2,4,6,8,10,-1,-1,-1,-1,12,14,16,18,-1,-1,-1,-1,-1,-1],"split_conditions":[1.2596177E-1,2.4718447E-2,2.9345268E-2,2.4509683E-2,3.924511E-2,7.0549995E-1,2.6407306E0,-7.70154E-1,-3.8479733E-1,3.9463237E-2,9.1652244E-2,4.5217406E-2,1.9784564E-2,-1.5717006E-1,-9.111884E-1,-1.298361E-1,1.7131703E-1,4.0544695E-1,1.138078E0],"split_indices":[4,10,0,5,0,0,0,0,0,10,1,1,0,0,0,0,0,0,0],"split_type":[0,0,0,0,0,0,0,0,0,0,0,0,0,0,0,0,0,0,0],"sum_hessian":[4.2E1,3.7E1,5E0,2.2E1,1.5E1,1E0,4E0,1.2E1,1E1,1E1,5E0,5E0,5E0,1E0,4E0,4E0,1E0,3E0,2E0],"tree_param":{"num_deleted":"0","num_feature":"11","num_nodes":"19","size_leaf_vector":"1"}},{"base_weights":[6.5432334E-1,-9.9943905E0,6.443755E1,-1.5208207E1,-7.1494895E-1,1.2312882E0,3.8409612E0,-7.529204E-1,-3.9856774E-1,7.1499233E0,-9.429397E-1,-1.9031187E0,1.5011312E1,-1.2541722E-1,7.065231E-2,1.6767287E-1,1.6437056E1,2.0596239E-1,7.711122E-1],"categories":[],"categories_nodes":[],"categories_segments":[],"categories_sizes":[],"default_left":[0,0,0,0,0,0,0,0,0,0,0,0,0,0,0,0,0,0,0],"id":27,"left_children":[1,3,5,7,9,-1,-1,-1,-1,11,-1,13,15,-1,-1,-1,17,-1,-1],"loss_changes":[2.8491596E4,1.7308545E3,2.8916875E3,1.6860059E2,2.5202595E3,0E0,0E0,0E0,0E0,8.114326E2,0E0,2.7239676E1,2.9914795E1,0E0,0E0,0E0,1.0150757E1,0E0,0E0],"parents":[2147483647,0,0,1,1,2,2,3,3,4,4,9,9,11,11,12,12,16,16],"right_children":[2,4,6,8,10,-1,-1,-1,-1,12,-1,14,16,-1,-1,-1,18,-1,-1],"split_conditions":[1.2753867E-1,2.4718447E-2,6.3996755E-2,2.7000826E-2,3.5423916E-2,1.2312882E0,3.8409612E0,-7.529204E-1,-3.9856774E-1,9.620641E-2,-9.429397E-1,5.3465698E-2,6.0946338E-2,-1.2541722E-1,7.065231E-2,1.6767287E-1,9.3291774E-2,2.0596239E-1,7.711122E-1],"split_indices":[4,10,0,5,0,0,0,0,0,4,0,5,5,0,0,0,3,0,0],"split_type":[0,0,0,0,0,0,0,0,0,0,0,0,0,0,0,0,0,0,0],"sum_hessian":[4E1,3.5E1,5E0,2.2E1,1.3E1,3E0,2E0,1.4E1,8E0,1E1,3E0,5E0,5E0,4E0,1E0,1E0,4E0,1E0,3E0],"tree_param":{"num_deleted":"0","num_feature":"11","num_nodes":"19","size_leaf_vector":"1"}},{"base_weights":[3.1021662E0,-4.992447E0,3.8870034E0,-1.3291076E1,1.1937639E1,-7.06503E-1,-6.053911E0,2.0439503E1,-7.0418006E-1,-2.9584208E-1,-1.3356018E0,8.934566E0,1.2956488E0,-6.0140337E-3,-7.921588E-2,6.9149375E-2,4.2039958E-1],"categories":[],"categories_nodes":[],"categories_segments":[],"categories_sizes":[],"default_left":[0,0,0,0,0,0,0,0,0,0,0,0,0,0,0,0,0],"id":28,"left_children":[1,3,-1,5,7,-1,9,11,-1,-1,13,15,-1,-1,-1,-1,-1],"loss_changes":[3.4036363E4,6.3405103E3,0E0,6.193916E2,3.971593E3,0E0,3.742932E1,1.1106738E3,0E0,0E0,1.6228404E0,3.240497E1,0E0,0E0,0E0,0E0,0E0],"parents":[2147483647,0,0,1,1,3,3,4,4,6,6,7,7,10,10,11,11],"right_children":[2,4,-1,6,8,-1,10,12,-1,-1,14,16,-1,-1,-1,-1,-1],"split_conditions":[8.5376464E-2,5.3465698E-2,3.8870034E0,2.9001795E-2,5.2035525E-2,-7.06503E-1,4.5572907E-2,5.306161E-2,-7.0418006E-1,-2.9584208E-1,1.9317092E-2,9.25171E-2,1.2956488E0,-6.0140337E-3,-7.921588E-2,6.9149375E-2,4.2039958E-1],"split_indices":[0,5,0,5,8,0,5,10,0,0,0,3,0,0,0,0,0],"split_type":[0,0,0,0,0,0,0,0,0,0,0,0,0,0,0,0,0],"sum_hessian":[4.6E1,4.3E1,3E0,2.9E1,1.4E1,1.9E1,1E1,1.1E1,3E0,8E0,2E0,6E0,5E0,1E0,1E0,1E0,5E0],"tree_param":{"num_deleted":"0","num_feature":"11","num_nodes":"17","size_leaf_vector":"1"}},{"base_weights":[2.8383508E0,-7.615279E0,6.1602528E1,-1.3963012E1,2.4502685E0,1.2147584E0,3.6217828E0,-6.768466E-1,-3.3168194E-1,1.4132512E1,-1.1250905E1,6.2502E0,1.0714902E0,-1.5591262E-1,-6.8171173E-1,9.683202E-1,3.6795327E-1,-5.8861515E-3,6.767841E-2],"categories":[],"categories_nodes":[],"categories_segments":[],"categories_sizes":[],"default_left":[0,0,0,0,0,0,0,0,0,0,0,0,0,0,0,0,0,0,0],"id":29,"left_children":[1,3,5,7,9,-1,-1,-1,-1,11,13,15,-1,-1,-1,17,-1,-1,-1],"loss_changes":[2.442678E4,2.2065889E3,2.2350332E3,1.2807129E2,2.3998499E3,0E0,0E0,0E0,0E0,5.396157E2,1.9474768E2,6.764787E1,0E0,0E0,0E0,2.2868948E0,0E0,0E0,0E0],"parents":[2147483647,0,0,1,1,2,2,3,3,4,4,9,9,10,10,11,11,15,15],"right_children":[2,4,6,8,10,-1,-1,-1,-1,12,14,16,-1,-1,-1,18,-1,-1,-1],"split_conditions":[1.2216551E-1,8.438044E-2,8.526993E-2,2.7492125E-2,4.0406656E-2,1.2147584E0,3.6217828E0,-6.768466E-1,-3.3168194E-1,2.0674927E-2,9.1652244E-2,9.25171E-2,1.0714902E0,-1.5591262E-1,-6.8171173E-1,1.9317092E-2,3.6795327E-1,-5.8861515E-3,6.767841E-2],"split_indices":[4,4,0,5,1,0,0,0,0,0,1,3,0,0,0,0,0,0,0],"split_type":[0,0,0,0,0,0,0,0,0,0,0,0,0,0,0,0,0,0,0],"sum_hessian":[3.8E1,3.3E1,5E0,2E1,1.3E1,3E0,2E0,1.4E1,6E0,7E0,6E0,5E0,2E0,3E0,3E0,2E0,3E0,1E0,1E0],"tree_param":{"num_deleted":"0","num_feature":"11","num_nodes":"19","size_leaf_vector":"1"}},{"base_weights":[8.4064996E-1,-8.359922E0,3.647421E0,-1.3185417E1,-4.0350088E-1,-1.722263E1,-8.755053E0,8.179564E0,-8.170533E-1,-2.1482281E-1,-7.6299995E-1,-4.2049465E-1,-1.5926653E-1,9.384923E-1,8.7709254E-1,-1.08368315E-1,5.061098E0,6.623876E-2,2.4292369E-1],"categories":[],"categories_nodes":[],"categories_segments":[],"categories_sizes":[],"default_left":[0,0,0,0,0,0,0,0,0,0,0,0,0,0,0,0,0,0,0],"id":30,"left_children":[1,3,-1,5,7,9,11,13,-1,-1,-1,-1,-1,15,-1,-1,17,-1,-1],"loss_changes":[3.1960094E4,1.4152456E3,0E0,2.606006E2,2.5777805E3,4.820801E0,3.6551025E1,9.713008E2,0E0,0E0,0E0,0E0,0E0,1.2785617E2,0E0,0E0,2.0644379E-1,0E0,0E0],"parents":[2147483647,0,0,1,1,3,3,4,4,5,5,6,6,7,7,13,13,16,16],"right_children":[2,4,-1,6,8,10,12,14,-1,-1,-1,-1,-1,16,-1,-1,18,-1,-1],"split_conditions":[8.5376464E-2,2.4718447E-2,3.647421E0,5.810026E-2,6.3996755E-2,1.6547661E-2,1.4931414E-3,6.0946338E-2,-8.170533E-1,-2.1482281E-1,-7.6299995E-1,-4.2049465E-1,-1.5926653E-1,5.3465698E-2,8.7709254E-1,-1.08368315E-1,3.4092244E-2,6.623876E-2,2.4292369E-1],"split_indices":[0,10,0,3,0,0,8,5,0,0,0,0,0,5,0,0,1,0,0],"split_type":[0,0,0,0,0,0,0,0,0,0,0,0,0,0,0,0,0,0,0],"sum_hessian":[3.9E1,3.6E1,3E0,2.2E1,1.4E1,1E1,1.2E1,1E1,4E0,1E0,9E0,9E0,3E0,7E0,3E0,4E0,3E0,1E0,2E0],"tree_param":{"num_deleted":"0","num_feature":"11","num_nodes":"19","size_leaf_vector":"1"}},{"base_weights":[2.5231943E0,-7.544398E0,5.915235E1,-1.1432939E1,6.5224757E0,1.1660323E0,3.4782772E0,-1.663124E1,-7.396806E0,1.1547699E1,-6.0950935E-1,-2.1025327E-1,-7.362387E-1,-8.394274E0,-1.4141272E-1,1.4542857E-1,1.4115725E1,-6.1875507E-2,-8.85139E0,1.6615516E-1,6.6757154E-1,-3.920223E-1,-1.0324296E-1],"categories":[],"categories_nodes":[],"categories_segments":[],"categories_sizes":[],"default_left":[0,0,0,0,0,0,0,0,0,0,0,0,0,0,0,0,0,0,0,0,0,0,0],"id":31,"left_children":[1,3,5,7,9,-1,-1,11,13,15,-1,-1,-1,17,-1,-1,19,-1,21,-1,-1,-1,-1],"loss_changes":[2.2680922E4,1.9343579E3,2.0649688E3,4.4346973E2,1.0036322E3,0E0,0E0,1.2219238E0,4.1158997E1,9.787976E1,0E0,0E0,0E0,2.8366333E1,0E0,0E0,1.9175354E1,0E0,5.656189E0,0E0,0E0,0E0,0E0],"parents":[2147483647,0,0,1,1,2,2,3,3,4,4,7,7,8,8,9,9,13,13,16,16,18,18],"right_children":[2,4,6,8,10,-1,-1,12,14,16,-1,-1,-1,18,-1,-1,20,-1,22,-1,-1,-1,-1],"split_conditions":[1.2753867E-1,5.3465698E-2,8.526993E-2,5.810026E-2,3.5423916E-2,1.1660323E0,3.4782772E0,1.6547661E-2,2.0290041E-2,6.0946338E-2,-6.0950935E-1,-2.1025327E-1,-7.362387E-1,6.639824E-2,-1.4141272E-1,1.4542857E-1,9.3291774E-2,-6.1875507E-2,1.0449833E-1,1.6615516E-1,6.6757154E-1,-3.920223E-1,-1.0324296E-1],"split_indices":[4,5,0,3,0,0,0,0,10,5,0,0,0,3,0,0,3,0,3,0,0,0,0],"split_type":[0,0,0,0,0,0,0,0,0,0,0,0,0,0,0,0,0,0,0,0,0,0,0],"sum_hessian":[3.8E1,3.3E1,5E0,2.6E1,7E0,3E0,2E0,1E1,1.6E1,6E0,1E0,1E0,9E0,1.2E1,4E0,2E0,4E0,1E0,1.1E1,1E0,3E0,1E1,1E0],"tree_param":{"num_deleted":"0","num_feature":"11","num_nodes":"23","size_leaf_vector":"1"}},{"base_weights":[6.947599E0,-3.2270648E0,6.683765E1,-9.8883915E0,1.0919621E1,1.1268088E0,3.420062E0,-5.4118294E-1,-5.1268377E0,1.5373226E1,-7.565603E0,-2.6293105E-1,-1.7379608E0,7.574211E0,1.0711453E0,-3.976612E-1,-8.5129134E-2,-4.4774998E-4,-9.828461E-2,6.1736267E-2,3.5535213E-1],"categories":[],"categories_nodes":[],"categories_segments":[],"categories_sizes":[],"default_left":[0,0,0,0,0,0,0,0,0,0,0,0,0,0,0,0,0,0,0,0,0],"id":32,"left_children":[1,3,5,7,9,-1,-1,-1,11,13,15,-1,17,19,-1,-1,-1,-1,-1,-1,-1],"loss_changes":[2.5199494E4,3.5004626E3,1.1521777E3,2.71969E2,1.1042184E3,0E0,0E0,0E0,2.8533783E1,5.739861E2,1.1039902E1,0E0,3.9301586E0,2.1252502E1,0E0,0E0,0E0,0E0,0E0,0E0,0E0],"parents":[2147483647,0,0,1,1,2,2,3,3,4,4,8,8,9,9,10,10,12,12,13,13],"right_children":[2,4,6,8,10,-1,-1,-1,12,14,16,-1,18,20,-1,-1,-1,-1,-1,-1,-1],"split_conditions":[1.2870435E-1,4.5924157E-2,8.526993E-2,3.0019505E-2,6.3996755E-2,1.1268088E0,3.420062E0,-5.4118294E-1,4.4551756E-2,3.0955892E-2,6.767281E-2,-2.6293105E-1,6.0701266E-2,9.25171E-2,1.0711453E0,-3.976612E-1,-8.5129134E-2,-4.4774998E-4,-9.828461E-2,6.1736267E-2,3.5535213E-1],"split_indices":[4,7,0,6,0,0,0,0,6,0,0,0,2,3,0,0,0,0,0,0,0],"split_type":[0,0,0,0,0,0,0,0,0,0,0,0,0,0,0,0,0,0,0,0,0],"sum_hessian":[4E1,3.5E1,5E0,2.4E1,1.1E1,2E0,3E0,1.4E1,1E1,9E0,2E0,7E0,3E0,6E0,3E0,1E0,1E0,1E0,2E0,1E0,5E0],"tree_param":{"num_deleted":"0","num_feature":"11","num_nodes":"21","size_leaf_vector":"1"}},{"base_weights":[1.1128916E0,-6.5173655E0,6.569185E1,-1.2365475E1,1.7146041E0,7.594502E-1,3.2199676E0,-6.037339E-1,-6.947353E0,7.894559E0,-1.2224217E1,-3.1592256E-1,-8.668636E-2,-1.6762177E0,1.3603034E1,-8.331834E-2,-6.0840297E-1,-1.1934979E-1,6.042304E-2,2.3009847E-1,6.7213225E-1],"categories":[],"categories_nodes":[],"categories_segments":[],"categories_sizes":[],"default_left":[0,0,0,0,0,0,0,0,0,0,0,0,0,0,0,0,0,0,0,0,0],"id":33,"left_children":[1,3,5,7,9,-1,-1,-1,11,13,15,-1,-1,17,19,-1,-1,-1,-1,-1,-1],"loss_changes":[1.8660037E4,1.6580112E3,5.6174805E2,9.9257324E1,1.3886241E3,0E0,0E0,0E0,1.3197021E0,6.237816E2,7.859241E1,0E0,0E0,2.1467476E1,4.051306E1,0E0,0E0,0E0,0E0,0E0,0E0],"parents":[2147483647,0,0,1,1,2,2,3,3,4,4,8,8,9,9,10,10,13,13,14,14],"right_children":[2,4,6,8,10,-1,-1,-1,12,14,16,-1,-1,18,20,-1,-1,-1,-1,-1,-1],"split_conditions":[1.4584938E-1,3.9025426E-2,8.526993E-2,6.448056E-2,6.3996755E-2,7.594502E-1,3.2199676E0,-6.037339E-1,3.011196E-2,5.549032E-2,1.1645017E-1,-3.1592256E-1,-8.668636E-2,5.3465698E-2,9.330714E-2,-8.331834E-2,-6.0840297E-1,-1.1934979E-1,6.042304E-2,2.3009847E-1,6.7213225E-1],"split_indices":[2,5,0,3,0,0,0,0,0,5,2,0,0,5,3,0,0,0,0,0,0],"split_type":[0,0,0,0,0,0,0,0,0,0,0,0,0,0,0,0,0,0,0,0,0],"sum_hessian":[3.6E1,3.3E1,3E0,1.9E1,1.4E1,1E0,2E0,1.3E1,6E0,1E1,4E0,5E0,1E0,4E0,6E0,1E0,3E0,3E0,1E0,2E0,4E0],"tree_param":{"num_deleted":"0","num_feature":"11","num_nodes":"21","size_leaf_vector":"1"}},{"base_weights":[2.2628329E0,-6.8898277E0,6.290343E1,-1.209668E1,2.5947044E0,1.0745493E0,3.2081993E0,-1.5336435E1,-7.677199E0,5.8985066E0,-7.9653788E0,-1.8142706E-1,-6.747282E-1,-3.6751968E-1,-4.410755E0,-1.3307863E0,1.12524E1,-8.1546076E-2,-3.974596E-1,-4.2327628E-2,-2.133923E-1,-2.152977E0,5.9137724E-2,1.2836353E-1,1.2122035E1,2.1004814E-3,-1.1554173E-1,2.2357258E-1,6.058744E-1],"categories":[],"categories_nodes":[],"categories_segments":[],"categories_sizes":[],"default_left":[0,0,0,0,0,0,0,0,0,0,0,0,0,0,0,0,0,0,0,0,0,0,0,0,0,0,0,0,0],"id":34,"left_children":[1,3,5,7,9,-1,-1,11,13,15,17,-1,-1,-1,19,21,23,-1,-1,-1,-1,25,-1,-1,27,-1,-1,-1,-1],"loss_changes":[2.540942E4,2.0067695E3,9.204551E2,2.5452808E2,5.7031024E2,0E0,0E0,1.3529297E1,2.7321167E0,4.7943295E2,1.5413574E1,0E0,0E0,0E0,5.345871E0,1.641526E1,1.3554932E1,0E0,0E0,0E0,0E0,6.3329506E0,0E0,0E0,1.248407E1,0E0,0E0,0E0,0E0],"parents":[2147483647,0,0,1,1,2,2,3,3,4,4,7,7,8,8,9,9,10,10,14,14,15,15,16,16,21,21,24,24],"right_children":[2,4,6,8,10,-1,-1,12,14,16,18,-1,-1,-1,20,22,24,-1,-1,-1,-1,26,-1,-1,28,-1,-1,-1,-1],"split_conditions":[1.2753867E-1,3.9025426E-2,2.2308245E-1,5.810026E-2,8.563009E-2,1.0745493E0,3.2081993E0,4.4739287E-2,1.4931414E-3,5.549032E-2,1.1645017E-1,-1.8142706E-1,-6.747282E-1,-3.6751968E-1,6.639824E-2,5.3465698E-2,4.8944376E-2,-8.1546076E-2,-3.974596E-1,-4.2327628E-2,-2.133923E-1,6.0701266E-2,5.9137724E-2,1.2836353E-1,9.330714E-2,2.1004814E-3,-1.1554173E-1,2.2357258E-1,6.058744E-1],"split_indices":[4,5,4,3,2,0,0,2,8,5,2,0,0,0,3,5,7,0,0,0,0,2,0,0,3,0,0,0,0],"split_type":[0,0,0,0,0,0,0,0,0,0,0,0,0,0,0,0,0,0,0,0,0,0,0,0,0,0,0,0,0],"sum_hessian":[4.4E1,3.9E1,5E0,2.5E1,1.4E1,2E0,3E0,1.3E1,1.2E1,1.1E1,3E0,1E0,1.2E1,8E0,4E0,5E0,6E0,1E0,2E0,1E0,3E0,4E0,1E0,1E0,5E0,1E0,3E0,2E0,3E0],"tree_param":{"num_deleted":"0","num_feature":"11","num_nodes":"29","size_leaf_vector":"1"}},{"base_weights":[9.7168785E-1,-8.123347E0,4.8906635E1,-6.354879E-1,-5.0462685E0,1.0526712E0,3.1003146E0,-2.4657574E0,-8.197005E-1,-6.187699E0,5.7515883E0,-7.2900405E0,-2.0840714E0,9.951089E0,-1.9419025E-1,-4.142726E-2,-7.7352467E0,2.0558524E-3,-1.11855134E-1,1.2234193E-1,1.2769819E1,-3.4439284E-1,-8.030328E-2,1.4541195E-1,6.274067E-1],"categories":[],"categories_nodes":[],"categories_segments":[],"categories_sizes":[],"default_left":[0,0,0,0,0,0,0,0,0,0,0,0,0,0,0,0,0,0,0,0,0,0,0,0,0],"id":35,"left_children":[1,3,5,-1,7,-1,-1,9,-1,11,13,15,17,19,-1,-1,21,-1,-1,-1,23,-1,-1,-1,-1],"loss_changes":[1.9143996E4,7.004468E2,2.2508477E3,0E0,9.433562E2,0E0,0E0,7.6961664E2,0E0,6.1708252E1,3.920059E2,2.9023987E1,5.9397583E0,8.293793E1,0E0,0E0,9.981567E0,0E0,0E0,0E0,2.3580017E1,0E0,0E0,0E0,0E0],"parents":[2147483647,0,0,1,1,2,2,4,4,7,7,9,9,10,10,11,11,12,12,13,13,16,16,20,20],"right_children":[2,4,6,-1,8,-1,-1,10,-1,12,14,16,18,20,-1,-1,22,-1,-1,-1,24,-1,-1,-1,-1],"split_conditions":[1.2596177E-1,5.810026E-2,8.526993E-2,-6.354879E-1,1.2898195E-1,1.0526712E0,3.1003146E0,5.3465698E-2,-8.197005E-1,3.9025426E-2,3.5423916E-2,6.639824E-2,6.0701266E-2,6.0946338E-2,-1.9419025E-1,-4.142726E-2,8.255775E-2,2.0558524E-3,-1.11855134E-1,1.2234193E-1,9.3291774E-2,-3.4439284E-1,-8.030328E-2,1.4541195E-1,6.274067E-1],"split_indices":[4,3,0,0,2,0,0,5,0,5,0,3,2,5,0,0,2,0,0,0,3,0,0,0,0],"split_type":[0,0,0,0,0,0,0,0,0,0,0,0,0,0,0,0,0,0,0,0,0,0,0,0,0],"sum_hessian":[4.2E1,3.6E1,6E0,1E1,2.6E1,4E0,2E0,2.3E1,3E0,1.6E1,7E0,1.2E1,4E0,5E0,2E0,1E0,1.1E1,1E0,3E0,2E0,3E0,1E1,1E0,1E0,2E0],"tree_param":{"num_deleted":"0","num_feature":"11","num_nodes":"25","size_leaf_vector":"1"}},{"base_weights":[1.725831E0,-6.4065127E0,4.678806E1,-1.0393812E1,3.431062E0,1.0168444E0,2.9497232E0,-1.4060946E1,-6.764653E0,1.14301195E1,-1.54245825E1,-1.6405022E-1,-6.2069625E-1,-7.1901045E0,-1.07391395E-1,5.082081E0,9.543223E-1,-7.5680785E-2,-8.244814E-1,-3.1586477E-1,-8.8078134E-2,-2.1596909E-1,3.0819947E-1,-6.905922E-2,5.5277403E-2],"categories":[],"categories_nodes":[],"categories_segments":[],"categories_sizes":[],"default_left":[0,0,0,0,0,0,0,0,0,0,0,0,0,0,0,0,0,0,0,0,0,0,0,0,0],"id":36,"left_children":[1,3,5,7,9,-1,-1,11,13,15,17,-1,-1,19,-1,21,-1,-1,-1,-1,-1,23,-1,-1,-1],"loss_changes":[1.6790518E4,1.5654509E3,1.9549814E3,2.7752393E2,1.9862333E3,0E0,0E0,1.3924561E1,1.0714722E1,5.1457104E2,1.8142877E2,0E0,0E0,1.4413452E0,0E0,8.176062E1,0E0,0E0,0E0,0E0,0E0,8.506842E0,0E0,0E0,0E0],"parents":[2147483647,0,0,1,1,2,2,3,3,4,4,7,7,8,8,9,9,10,10,13,13,15,15,21,21],"right_children":[2,4,6,8,10,-1,-1,12,14,16,18,-1,-1,20,-1,22,-1,-1,-1,-1,-1,24,-1,-1,-1],"split_conditions":[1.2753867E-1,4.3144785E-2,8.526993E-2,4.5805182E-2,3.924511E-2,1.0168444E0,2.9497232E0,1.6547661E-2,6.287389E-3,3.0875918E-2,7.1328595E-2,-1.6405022E-1,-6.2069625E-1,8.438044E-2,-1.07391395E-1,9.336806E-2,9.543223E-1,-7.5680785E-2,-8.244814E-1,-3.1586477E-1,-8.8078134E-2,1.9314084E-2,3.0819947E-1,-6.905922E-2,5.5277403E-2],"split_indices":[4,5,0,4,0,0,0,0,8,0,0,0,0,4,0,4,0,0,0,0,0,0,0,0,0],"split_type":[0,0,0,0,0,0,0,0,0,0,0,0,0,0,0,0,0,0,0,0,0,0,0,0,0],"sum_hessian":[4.4E1,3.8E1,6E0,2.7E1,1.1E1,4E0,2E0,1.2E1,1.5E1,8E0,3E0,1E0,1.1E1,1.3E1,2E0,6E0,2E0,1E0,2E0,1.2E1,1E0,2E0,4E0,1E0,1E0],"tree_param":{"num_deleted":"0","num_feature":"11","num_nodes":"25","size_leaf_vector":"1"}},{"base_weights":[3.991399E0,-3.2512307E0,6.113416E1,-9.206557E0,8.466272E0,6.764173E-1,2.9127972E0,-5.141789E-1,-4.599797E0,1.78511E1,-1.199664E1,-5.148842E0,-1.2363815E0,5.8962097E0,1.0566864E0,-1.759176E-1,-6.7469573E-1,-3.3827193E-2,-2.3586617E-1,8.3642744E-4,-7.973471E-2,5.4101635E-2,2.864991E-1],"categories":[],"categories_nodes":[],"categories_segments":[],"categories_sizes":[],"default_left":[0,0,0,0,0,0,0,0,0,0,0,0,0,0,0,0,0,0,0,0,0,0,0],"id":37,"left_children":[1,3,5,7,9,-1,-1,-1,11,13,15,17,19,21,-1,-1,-1,-1,-1,-1,-1,-1,-1],"loss_changes":[1.840877E4,2.8692075E3,5.700449E2,3.025852E2,2.9027266E3,0E0,0E0,0E0,1.5794037E1,6.888633E2,8.625287E1,1.2805969E1,2.4403553E0,1.0817093E1,0E0,0E0,0E0,0E0,0E0,0E0,0E0,0E0,0E0],"parents":[2147483647,0,0,1,1,2,2,3,3,4,4,8,8,9,9,10,10,11,11,12,12,13,13],"right_children":[2,4,6,8,10,-1,-1,-1,12,14,16,18,20,22,-1,-1,-1,-1,-1,-1,-1,-1,-1],"split_conditions":[1.01102784E-1,5.3465698E-2,8.526993E-2,1.3365538E-2,6.3996755E-2,6.764173E-1,2.9127972E0,-5.141789E-1,4.3144785E-2,5.306161E-2,9.32106E-2,6.639824E-2,1.9317092E-2,9.25171E-2,1.0566864E0,-1.759176E-1,-6.7469573E-1,-3.3827193E-2,-2.3586617E-1,8.3642744E-4,-7.973471E-2,5.4101635E-2,2.864991E-1],"split_indices":[1,5,0,10,0,0,0,0,5,10,1,3,0,3,0,0,0,0,0,0,0,0,0],"split_type":[0,0,0,0,0,0,0,0,0,0,0,0,0,0,0,0,0,0,0,0,0,0,0],"sum_hessian":[4.3E1,3.9E1,4E0,2.6E1,1.3E1,1E0,3E0,1.5E1,1.1E1,9E0,4E0,9E0,2E0,4E0,5E0,2E0,2E0,1E0,8E0,1E0,1E0,1E0,3E0],"tree_param":{"num_deleted":"0","num_feature":"11","num_nodes":"23","size_leaf_vector":"1"}},{"base_weights":[1.6801999E0,-5.2328796E0,4.0574284E1,-3.409792E0,-7.680461E-1,9.4950926E-1,2.8046305E0,-7.083126E0,1.3076287E1,-8.765382E0,-2.2023783E0,1.6352802E1,-7.032896E-2,-4.620912E-1,-6.253234E0,-2.8726196E0,5.2950855E-2,2.6219723E-1,8.9728665E-1,-3.129506E-1,-1.0567768E-1,-1.0466295E0,-1.4437631E-1,-6.760806E-2,8.185759E-4],"categories":[],"categories_nodes":[],"categories_segments":[],"categories_sizes":[],"default_left":[0,0,0,0,0,0,0,0,0,0,0,0,0,0,0,0,0,0,0,0,0,0,0,0,0],"id":38,"left_children":[1,3,5,7,-1,-1,-1,9,11,13,15,17,-1,-1,19,21,-1,-1,-1,-1,-1,23,-1,-1,-1],"loss_changes":[1.0698557E4,7.331322E2,1.3053428E3,1.9699459E3,0E0,0E0,0E0,1.9417249E2,3.166007E2,3.2144653E1,2.2058182E1,1.11437256E2,0E0,0E0,2.7455994E1,3.108345E0,0E0,0E0,0E0,0E0,0E0,1.7654626E0,0E0,0E0,0E0],"parents":[2147483647,0,0,1,1,2,2,3,3,7,7,8,8,9,9,10,10,11,11,14,14,15,15,21,21],"right_children":[2,4,6,8,-1,-1,-1,10,12,14,16,18,-1,-1,20,22,-1,-1,-1,-1,-1,24,-1,-1,-1],"split_conditions":[1.2596177E-1,9.1652244E-2,8.526993E-2,5.549032E-2,-7.680461E-1,9.4950926E-1,2.8046305E0,3.0736765E-2,3.924511E-2,6.448056E-2,5.3465698E-2,1.9784564E-2,-7.032896E-2,-4.620912E-1,1.2863831E-3,1.9317092E-2,5.2950855E-2,2.6219723E-1,8.9728665E-1,-3.129506E-1,-1.0567768E-1,1.9314084E-2,-1.4437631E-1,-6.760806E-2,8.185759E-4],"split_indices":[4,1,0,5,0,0,0,7,0,3,5,0,0,0,8,0,0,0,0,0,0,0,0,0,0],"split_type":[0,0,0,0,0,0,0,0,0,0,0,0,0,0,0,0,0,0,0,0,0,0,0,0,0],"sum_hessian":[3.8E1,3.3E1,5E0,3E1,3E0,4E0,1E0,2.5E1,5E0,1.8E1,7E0,4E0,1E0,8E0,1E1,6E0,1E0,2E0,2E0,7E0,3E0,2E0,4E0,1E0,1E0],"tree_param":{"num_deleted":"0","num_feature":"11","num_nodes":"25","size_leaf_vector":"1"}},{"base_weights":[4.1567106E0,-5.5784435E0,5.3762222E1,-9.986023E0,4.6760755E0,9.338713E-1,2.730372E0,-5.2996576E-1,-5.7747583E0,1.2530738E1,-1.0238603E1,-6.0707574E0,-6.616995E-2,5.247049E0,8.718381E-1,-1.5903936E-1,-6.3259405E-1,-2.7328745E-1,-6.904568E-2,2.5311643E-1,5.1824585E-2],"categories":[],"categories_nodes":[],"categories_segments":[],"categories_sizes":[],"default_left":[0,0,0,0,0,0,0,0,0,0,0,0,0,0,0,0,0,0,0,0,0],"id":39,"left_children":[1,3,5,7,9,-1,-1,-1,11,13,15,17,-1,19,-1,-1,-1,-1,-1,-1,-1],"loss_changes":[1.7684932E4,1.4478213E3,5.7949805E2,1.5702051E2,1.2997948E3,0E0,0E0,0E0,3.046997E0,2.9844873E2,6.482413E1,3.7088318E0,0E0,6.9069977E0,0E0,0E0,0E0,0E0,0E0,0E0,0E0],"parents":[2147483647,0,0,1,1,2,2,3,3,4,4,8,8,9,9,10,10,11,11,13,13],"right_children":[2,4,6,8,10,-1,-1,-1,12,14,16,18,-1,20,-1,-1,-1,-1,-1,-1,-1],"split_conditions":[1.2596177E-1,8.397043E-2,2.2308245E-1,5.810026E-2,4.0406656E-2,9.338713E-1,2.730372E0,-5.2996576E-1,8.177137E-2,6.8727076E-2,9.32106E-2,4.732628E-2,-6.616995E-2,6.1677586E-2,8.718381E-1,-1.5903936E-1,-6.3259405E-1,-2.7328745E-1,-6.904568E-2,2.5311643E-1,5.1824585E-2],"split_indices":[4,4,4,3,1,0,0,0,4,6,1,1,0,2,0,0,0,0,0,0,0],"split_type":[0,0,0,0,0,0,0,0,0,0,0,0,0,0,0,0,0,0,0,0,0],"sum_hessian":[3.5E1,3E1,5E0,2.1E1,9E0,2E0,3E0,1.2E1,9E0,6E0,3E0,8E0,1E0,4E0,2E0,2E0,1E0,7E0,1E0,3E0,1E0],"tree_param":{"num_deleted":"0","num_feature":"11","num_nodes":"21","size_leaf_vector":"1"}},{"base_weights":[2.8062017E0,-4.219093E0,5.034468E1,-8.55491E0,1.7963899E0,7.592466E-1,2.6432538E0,-1.091872E1,-5.7148604E0,8.557264E0,-1.3151569E1,-1.2852104E-1,-4.8337126E-1,-2.6145482E-1,-9.487361E-2,3.0226521E0,8.616777E-1,-1.5452875E-1,-7.233559E-1,-1.5943022E0,5.229104E0,-8.737908E-2,-4.582824E-3,5.0722167E-2,2.4262878E-1],"categories":[],"categories_nodes":[],"categories_segments":[],"categories_sizes":[],"default_left":[0,0,0,0,0,0,0,0,0,0,0,0,0,0,0,0,0,0,0,0,0,0,0,0,0],"id":40,"left_children":[1,3,5,7,9,-1,-1,11,13,15,17,-1,-1,-1,-1,19,-1,-1,-1,21,23,-1,-1,-1,-1],"loss_changes":[1.5575112E4,1.0847312E3,1.1895205E3,9.872119E1,1.9316443E3,0E0,0E0,7.6914062E0,5.813385E0,7.8039185E2,1.5822131E2,0E0,0E0,0E0,0E0,1.1020765E2,0E0,0E0,0E0,2.5117826E0,6.5971527E0,0E0,0E0,0E0,0E0],"parents":[2147483647,0,0,1,1,2,2,3,3,4,4,7,7,8,8,9,9,10,10,15,15,19,19,20,20],"right_children":[2,4,6,8,10,-1,-1,12,14,16,18,-1,-1,-1,-1,20,-1,-1,-1,22,24,-1,-1,-1,-1],"split_conditions":[1.2870435E-1,2.4718447E-2,4.7825545E-2,4.5805182E-2,6.3996755E-2,7.592466E-1,2.6432538E0,1.6547661E-2,8.255775E-2,3.2213863E-2,9.32106E-2,-1.2852104E-1,-4.8337126E-1,-2.6145482E-1,-9.487361E-2,8.920232E-2,8.616777E-1,-1.5452875E-1,-7.233559E-1,8.397043E-2,9.336806E-2,-8.737908E-2,-4.582824E-3,5.0722167E-2,2.4262878E-1],"split_indices":[4,10,0,4,0,0,0,0,2,0,1,0,0,0,0,4,0,0,0,4,4,0,0,0,0],"split_type":[0,0,0,0,0,0,0,0,0,0,0,0,0,0,0,0,0,0,0,0,0,0,0,0,0],"sum_hessian":[4.5E1,4E1,5E0,2.3E1,1.7E1,2E0,3E0,1.1E1,1.2E1,1.2E1,5E0,1E0,1E1,1E1,2E0,9E0,3E0,2E0,3E0,3E0,6E0,2E0,1E0,1E0,5E0],"tree_param":{"num_deleted":"0","num_feature":"11","num_nodes":"25","size_leaf_vector":"1"}},{"base_weights":[2.3833163E0,-4.397245E0,5.343892E1,-9.892048E0,2.25765E0,5.657418E-1,2.5589159E0,-5.453264E-1,-2.5808245E-1,6.7032304E0,-1.497769E1,1.8429651E0,8.3418417E-1,-7.4088204E-1,-1.6305605E-1,-9.376581E-2,5.048551E0,8.361039E-2,2.505235E-1],"categories":[],"categories_nodes":[],"categories_segments":[],"categories_sizes":[],"default_left":[0,0,0,0,0,0,0,0,0,0,0,0,0,0,0,0,0,0,0],"id":41,"left_children":[1,3,5,7,9,-1,-1,-1,-1,11,13,15,-1,-1,-1,-1,17,-1,-1],"loss_changes":[1.4774781E4,1.4118916E3,5.4695703E2,1.5733105E2,1.4795785E3,0E0,0E0,0E0,0E0,9.046879E2,4.1909607E1,1.6680377E2,0E0,0E0,0E0,0E0,6.5606537E0,0E0,0E0],"parents":[2147483647,0,0,1,1,2,2,3,3,4,4,9,9,10,10,11,11,16,16],"right_children":[2,4,6,8,10,-1,-1,-1,-1,12,14,16,-1,-1,-1,-1,18,-1,-1],"split_conditions":[1.0757105E-1,2.8441222E-2,8.526993E-2,4.7734197E-2,6.3996755E-2,5.657418E-1,2.5589159E0,-5.453264E-1,-2.5808245E-1,3.2213863E-2,8.309888E-2,5.3465698E-2,8.3418417E-1,-7.4088204E-1,-1.6305605E-1,-9.376581E-2,4.8944376E-2,8.361039E-2,2.505235E-1],"split_indices":[1,7,0,3,0,0,0,0,0,0,0,5,0,0,0,0,7,0,0],"split_type":[0,0,0,0,0,0,0,0,0,0,0,0,0,0,0,0,0,0,0],"sum_hessian":[4.1E1,3.7E1,4E0,2E1,1.7E1,1E0,3E0,1E1,1E1,1.4E1,3E0,1.1E1,3E0,2E0,1E0,5E0,6E0,2E0,4E0],"tree_param":{"num_deleted":"0","num_feature":"11","num_nodes":"19","size_leaf_vector":"1"}},{"base_weights":[5.6399566E-1,-5.2167377E0,2.4772685E0,-8.473196E0,7.7557194E-1,-1.0655971E1,-2.32739E-1,6.271107E0,-6.766366E-1,-1.1418744E-1,-4.7063687E-1,-9.1554534E-1,1.3610351E1,-1.0327296E-1,8.123906E-2,1.6768723E1,-4.6403468E-2,2.066612E-1,7.8840023E-1],"categories":[],"categories_nodes":[],"categories_segments":[],"categories_sizes":[],"default_left":[0,0,0,0,0,0,0,0,0,0,0,0,0,0,0,0,0,0,0],"id":42,"left_children":[1,3,-1,5,7,9,-1,11,-1,-1,-1,13,15,-1,-1,17,-1,-1,-1],"loss_changes":[1.4637982E4,7.871199E2,0E0,1.1210034E2,1.4747656E3,1.5703369E1,0E0,6.45396E2,0E0,0E0,0E0,3.4536358E1,2.9687988E2,0E0,0E0,1.498938E1,0E0,0E0,0E0],"parents":[2147483647,0,0,1,1,3,3,4,4,5,5,7,7,11,11,12,12,15,15],"right_children":[2,4,-1,6,8,10,-1,12,-1,-1,-1,14,16,-1,-1,18,-1,-1,-1],"split_conditions":[8.309888E-2,2.0290041E-2,2.4772685E0,4.5805182E-2,9.1652244E-2,1.6547661E-2,-2.32739E-1,6.0946338E-2,-6.766366E-1,-1.1418744E-1,-4.7063687E-1,5.3465698E-2,3.924511E-2,-1.0327296E-1,8.123906E-2,1.824988E-2,-4.6403468E-2,2.066612E-1,7.8840023E-1],"split_indices":[0,10,0,4,1,0,0,5,0,0,0,5,0,0,0,0,0,0,0],"split_type":[0,0,0,0,0,0,0,0,0,0,0,0,0,0,0,0,0,0,0],"sum_hessian":[4.2E1,3.9E1,3E0,2.5E1,1.4E1,1.3E1,1.2E1,1.1E1,3E0,1E0,1.2E1,6E0,5E0,4E0,2E0,4E0,1E0,1E0,3E0],"tree_param":{"num_deleted":"0","num_feature":"11","num_nodes":"19","size_leaf_vector":"1"}},{"base_weights":[2.3155458E0,-4.822477E0,4.594743E1,-7.6102567E0,3.465554E0,7.118088E-1,2.3982265E0,-4.7088826E-1,-4.721386E0,1.0848021E1,-1.032015E1,-9.044582E-3,-4.9898977E0,4.2336855E0,7.7665323E-1,-4.5416437E-2,-5.551168E-1,-5.7090964E0,-1.20808885E-1,4.6136748E-2,2.0207147E-1,-2.5559315E-1,-5.7872374E-2],"categories":[],"categories_nodes":[],"categories_segments":[],"categories_sizes":[],"default_left":[0,0,0,0,0,0,0,0,0,0,0,0,0,0,0,0,0,0,0,0,0,0,0],"id":43,"left_children":[1,3,5,7,9,-1,-1,-1,11,13,15,-1,17,19,-1,-1,-1,21,-1,-1,-1,-1,-1],"loss_changes":[1.3302286E4,8.812663E2,8.842324E2,2.2748328E2,1.1296782E3,0E0,0E0,0E0,1.9520386E1,2.6569788E2,8.704727E1,0E0,8.530304E0,2.9766083E0,0E0,0E0,0E0,6.1226196E0,0E0,0E0,0E0,0E0,0E0],"parents":[2147483647,0,0,1,1,2,2,3,3,4,4,8,8,9,9,10,10,12,12,13,13,17,17],"right_children":[2,4,6,8,10,-1,-1,-1,12,14,16,-1,18,20,-1,-1,-1,22,-1,-1,-1,-1,-1],"split_conditions":[1.2753867E-1,4.5924157E-2,4.7825545E-2,5.810026E-2,3.924511E-2,7.118088E-1,2.3982265E0,-4.7088826E-1,6.639824E-2,3.0955892E-2,1.1645017E-1,-9.044582E-3,3.0736765E-2,9.25171E-2,7.7665323E-1,-4.5416437E-2,-5.551168E-1,8.255775E-2,-1.20808885E-1,4.6136748E-2,2.0207147E-1,-2.5559315E-1,-5.7872374E-2],"split_indices":[4,7,0,3,0,0,0,0,3,0,2,0,7,3,0,0,0,2,0,0,0,0,0],"split_type":[0,0,0,0,0,0,0,0,0,0,0,0,0,0,0,0,0,0,0,0,0,0,0],"sum_hessian":[4.1E1,3.6E1,5E0,2.7E1,9E0,2E0,3E0,1.1E1,1.6E1,6E0,3E0,1E0,1.5E1,4E0,2E0,1E0,2E0,1E1,5E0,1E0,3E0,9E0,1E0],"tree_param":{"num_deleted":"0","num_feature":"11","num_nodes":"23","size_leaf_vector":"1"}},{"base_weights":[3.2042482E-1,-3.7974985E0,2.403311E0,-7.8789887E0,8.820157E-1,-1.2130159E1,-6.2603865E0,5.4368377E0,-5.900578E-1,-1.0174213E-1,-5.941892E-1,-2.7533594E-1,-5.6641344E-2,-7.734351E-1,1.0352987E1,-1.9175968E0,7.5415224E-2,1.2767909E1,1.2671725E0,-8.4412766E-1,-9.543574E-2,2.1141069E-1,7.391539E-1,1.2531352E-1,-4.4450343E-2,-5.61428E-2,2.2757512E-3],"categories":[],"categories_nodes":[],"categories_segments":[],"categories_sizes":[],"default_left":[0,0,0,0,0,0,0,0,0,0,0,0,0,0,0,0,0,0,0,0,0,0,0,0,0,0,0],"id":44,"left_children":[1,3,-1,5,7,9,11,13,-1,-1,-1,-1,-1,15,17,19,-1,21,23,25,-1,-1,-1,-1,-1,-1,-1],"loss_changes":[1.0160851E4,7.900245E2,0E0,7.544153E1,1.4192473E3,5.6035767E1,1.015863E1,4.9649744E2,0E0,0E0,0E0,0E0,0E0,2.6704845E1,1.8129468E2,2.0416069E-1,0E0,1.6512903E2,1.4719366E1,1.3512053E0,0E0,0E0,0E0,0E0,0E0,0E0,0E0],"parents":[2147483647,0,0,1,1,3,3,4,4,5,5,6,6,7,7,13,13,14,14,15,15,17,17,18,18,19,19],"right_children":[2,4,-1,6,8,10,12,14,-1,-1,-1,-1,-1,16,18,20,-1,22,24,26,-1,-1,-1,-1,-1,-1,-1],"split_conditions":[8.5376464E-2,3.0736765E-2,2.403311E0,4.1744724E-2,9.1652244E-2,1.6547661E-2,4.732628E-2,4.8944376E-2,-5.900578E-1,-1.0174213E-1,-5.941892E-1,-2.7533594E-1,-5.6641344E-2,4.5924157E-2,4.8493464E-2,1.9317092E-2,7.5415224E-2,1.9784564E-2,3.0875918E-2,1.9314084E-2,-9.543574E-2,2.1141069E-1,7.391539E-1,1.2531352E-1,-4.4450343E-2,-5.61428E-2,2.2757512E-3],"split_indices":[0,7,0,3,1,0,1,7,0,0,0,0,0,7,1,0,0,0,0,0,0,0,0,0,0,0,0],"split_type":[0,0,0,0,0,0,0,0,0,0,0,0,0,0,0,0,0,0,0,0,0,0,0,0,0,0,0],"sum_hessian":[4.2E1,4E1,2E0,2.1E1,1.9E1,4E0,1.7E1,1.5E1,4E0,1E0,3E0,1.6E1,1E0,7E0,8E0,5E0,2E0,6E0,2E0,2E0,3E0,3E0,3E0,1E0,1E0,1E0,1E0],"tree_param":{"num_deleted":"0","num_feature":"11","num_nodes":"27","size_leaf_vector":"1"}},{"base_weights":[1.4223672E0,-2.623241E0,2.3351488E0,-6.3896985E0,4.080168E0,-6.975031E0,-1.4266129E0,1.083656E1,-1.1599929E1,-1.9592282E-1,-8.169454E0,2.2273897E-3,-8.240731E-2,4.310926E0,7.5747633E-1,-4.3504857E-2,-5.9511113E-1,-3.5895583E-1,-9.9634595E-2,7.327628E-2,2.1279131E-1],"categories":[],"categories_nodes":[],"categories_segments":[],"categories_sizes":[],"default_left":[0,0,0,0,0,0,0,0,0,0,0,0,0,0,0,0,0,0,0,0,0],"id":45,"left_children":[1,3,-1,5,7,9,11,13,15,-1,17,-1,-1,19,-1,-1,-1,-1,-1,-1,-1],"loss_changes":[9.228918E3,1.0359952E3,0E0,6.558069E1,1.7148167E3,2.7476685E1,3.121132E0,4.2346155E2,1.1202368E2,0E0,2.113037E0,0E0,0E0,3.9038086E0,0E0,0E0,0E0,0E0,0E0,0E0,0E0],"parents":[2147483647,0,0,1,1,3,3,4,4,5,5,6,6,7,7,8,8,10,10,13,13],"right_children":[2,4,-1,6,8,10,12,14,16,-1,18,-1,-1,20,-1,-1,-1,-1,-1,-1,-1],"split_conditions":[8.5376464E-2,5.3465698E-2,2.3351488E0,2.4718447E-2,5.2035525E-2,2.040445E-2,1.9317092E-2,5.306161E-2,7.1328595E-2,-1.9592282E-1,8.113799E-2,2.2273897E-3,-8.240731E-2,3.476749E-2,7.5747633E-1,-4.3504857E-2,-5.9511113E-1,-3.5895583E-1,-9.9634595E-2,7.327628E-2,2.1279131E-1],"split_indices":[0,5,0,10,8,0,0,10,0,0,2,0,0,10,0,0,0,0,0,0,0],"split_type":[0,0,0,0,0,0,0,0,0,0,0,0,0,0,0,0,0,0,0,0,0],"sum_hessian":[4.1E1,3.9E1,2E0,2.5E1,1.4E1,2.2E1,3E0,1E1,4E0,9E0,1.3E1,1E0,2E0,6E0,4E0,1E0,3E0,1.2E1,1E0,2E0,4E0],"tree_param":{"num_deleted":"0","num_feature":"11","num_nodes":"21","size_leaf_vector":"1"}},{"base_weights":[4.8396885E-1,-3.424687E0,2.462084E1,-1.5187138E0,-5.54415E-1,4.3285832E-1,1.312865E0,-5.4944997E0,1.0625603E1,-6.8268323E0,-1.025863E0,2.0554921E-1,7.121792E-1,-7.1148524E0,-5.3317137E-2,6.922099E-1,-8.755058E-2,-8.01453E0,-1.5794317E-1,2.180002E-3,4.1992586E-2,-9.541042E-2,-3.5597256E-1],"categories":[],"categories_nodes":[],"categories_segments":[],"categories_sizes":[],"default_left":[0,0,0,0,0,0,0,0,0,0,0,0,0,0,0,0,0,0,0,0,0,0,0],"id":46,"left_children":[1,3,5,7,-1,-1,-1,9,11,13,15,-1,-1,17,-1,19,-1,21,-1,-1,-1,-1,-1],"loss_changes":[3.3863137E3,5.4785803E2,1.366687E2,1.3620288E3,0E0,0E0,0E0,1.18024536E2,1.6712E2,1.6768005E1,1.2063759E1,0E0,0E0,1.6159424E1,0E0,5.1641023E-1,0E0,3.640686E0,0E0,0E0,0E0,0E0,0E0],"parents":[2147483647,0,0,1,1,2,2,3,3,7,7,8,8,9,9,10,10,13,13,15,15,17,17],"right_children":[2,4,6,8,-1,-1,-1,10,12,14,16,-1,-1,18,-1,20,-1,22,-1,-1,-1,-1,-1],"split_conditions":[1.2753867E-1,4.136744E-2,6.3996755E-2,5.549032E-2,-5.54415E-1,4.3285832E-1,1.312865E0,2.4718447E-2,3.0875918E-2,4.732628E-2,6.838389E-5,2.0554921E-1,7.121792E-1,6.656944E-2,-5.3317137E-2,1.9317092E-2,-8.755058E-2,1.6547661E-2,-1.5794317E-1,2.180002E-3,4.1992586E-2,-9.541042E-2,-3.5597256E-1],"split_indices":[4,0,0,5,0,0,0,10,0,1,9,0,0,4,0,0,0,0,0,0,0,0,0],"split_type":[0,0,0,0,0,0,0,0,0,0,0,0,0,0,0,0,0,0,0,0,0,0,0],"sum_hessian":[3.4E1,3E1,4E0,2.6E1,4E0,2E0,2E0,2E1,6E0,1.5E1,5E0,4E0,2E0,1.4E1,1E0,2E0,3E0,1E1,4E0,1E0,1E0,1E0,9E0],"tree_param":{"num_deleted":"0","num_feature":"11","num_nodes":"23","size_leaf_vector":"1"}},{"base_weights":[1.765245E0,-4.9225664E0,3.781833E1,-3.7657206E0,-5.8769697E-1,6.869289E-1,2.128627E0,-6.241626E0,4.080408E0,-7.8159127E0,-3.622441E0,6.550863E0,-3.0441234E0,-9.3380906E-2,-3.4222555E-1,8.744108E-3,-3.9891243E0,1.1891912E0,3.5981205E-1,-3.078626E-2,-1.6347101E-1,-4.3262124E0,-7.011661E-2,2.1335878E-3,7.37533E-2,-1.9400851E-1,-5.2182995E-2],"categories":[],"categories_nodes":[],"categories_segments":[],"categories_sizes":[],"default_left":[0,0,0,0,0,0,0,0,0,0,0,0,0,0,0,0,0,0,0,0,0,0,0,0,0,0,0],"id":47,"left_children":[1,3,5,7,-1,-1,-1,9,11,13,15,17,19,-1,-1,-1,21,23,-1,-1,-1,25,-1,-1,-1,-1,-1],"loss_changes":[1.0795275E4,3.38862E2,1.0453945E3,7.0538776E2,0E0,0E0,0E0,8.301782E1,1.7834915E2,2.8833008E0,1.7663773E1,6.150876E1,2.7773323E0,0E0,0E0,0E0,1.5500183E0,1.7734838E0,0E0,0E0,0E0,9.3751526E-1,0E0,0E0,0E0,0E0,0E0],"parents":[2147483647,0,0,1,1,2,2,3,3,7,7,8,8,9,9,10,10,11,11,12,12,16,16,17,17,21,21],"right_children":[2,4,6,8,-1,-1,-1,10,12,14,16,18,20,-1,-1,-1,22,24,-1,-1,-1,26,-1,-1,-1,-1,-1],"split_conditions":[1.2753867E-1,9.32106E-2,8.526993E-2,8.438044E-2,-5.8769697E-1,6.869289E-1,2.128627E0,1.3231654E-2,3.5423916E-2,1.6547661E-2,6.639824E-2,9.3291774E-2,7.1328595E-2,-9.3380906E-2,-3.4222555E-1,8.744108E-3,2.4718447E-2,1.9317092E-2,3.5981205E-1,-3.078626E-2,-1.6347101E-1,4.732628E-2,-7.011661E-2,2.1335878E-3,7.37533E-2,-1.9400851E-1,-5.2182995E-2],"split_indices":[4,1,0,4,0,0,0,10,0,0,3,3,0,0,0,0,10,0,0,0,0,1,0,0,0,0,0],"split_type":[0,0,0,0,0,0,0,0,0,0,0,0,0,0,0,0,0,0,0,0,0,0,0,0,0,0,0],"sum_hessian":[4.3E1,3.7E1,6E0,3.4E1,3E0,3E0,3E0,2.6E1,8E0,1.5E1,1.1E1,6E0,2E0,1E0,1.4E1,1E0,1E1,2E0,4E0,1E0,1E0,8E0,2E0,1E0,1E0,7E0,1E0],"tree_param":{"num_deleted":"0","num_feature":"11","num_nodes":"27","size_leaf_vector":"1"}},{"base_weights":[2.942368E0,-3.6861706E0,3.6611656E1,-6.3345084E0,1.48662E0,6.650109E-1,2.060709E0,-7.61865E0,-1.4242217E-1,1.0219798E1,-1.0405388E1,-9.139459E-2,-3.3353886E-1,3.7346084E0,6.709533E-1,-3.0131431E-2,-5.1915383E-1,1.7759883E-1,4.2002E-2],"categories":[],"categories_nodes":[],"categories_segments":[],"categories_sizes":[],"default_left":[0,0,0,0,0,0,0,0,0,0,0,0,0,0,0,0,0,0,0],"id":48,"left_children":[1,3,5,7,9,-1,-1,11,-1,13,15,-1,-1,17,-1,-1,-1,-1,-1],"loss_changes":[9.50844E3,5.0259174E2,9.7974805E2,6.6544556E1,1.4564563E3,0E0,0E0,2.5411377E0,0E0,2.2912244E2,9.595624E1,0E0,0E0,1.9226074E0,0E0,0E0,0E0,0E0,0E0],"parents":[2147483647,0,0,1,1,2,2,3,3,4,4,7,7,9,9,10,10,13,13],"right_children":[2,4,6,8,10,-1,-1,12,-1,14,16,-1,-1,18,-1,-1,-1,-1,-1],"split_conditions":[1.2870435E-1,9.620641E-2,8.526993E-2,2.9001795E-2,6.3996755E-2,6.650109E-1,2.060709E0,1.6547661E-2,-1.4242217E-1,3.0955892E-2,9.1652244E-2,-9.139459E-2,-3.3353886E-1,3.0875918E-2,6.709533E-1,-3.0131431E-2,-5.1915383E-1,1.7759883E-1,4.2002E-2],"split_indices":[4,4,0,5,0,0,0,0,0,0,1,0,0,0,0,0,0,0,0],"split_type":[0,0,0,0,0,0,0,0,0,0,0,0,0,0,0,0,0,0,0],"sum_hessian":[4.1E1,3.5E1,6E0,2.3E1,1.2E1,3E0,3E0,1.5E1,8E0,7E0,5E0,1E0,1.4E1,4E0,3E0,1E0,4E0,3E0,1E0],"tree_param":{"num_deleted":"0","num_feature":"11","num_nodes":"19","size_leaf_vector":"1"}},{"base_weights":[1.6858951E0,-1.8442023E0,2.0502074E0,-5.7318316E0,6.6710153E0,-8.235399E0,-3.3394437E0,1.3720495E1,-7.3522525E0,-8.9450516E-2,-8.571247E0,-1.8116204E-1,-1.5496281E0,3.720583E0,7.7003574E-1,-2.9490478E-2,-3.7623444E-1,-4.972085E-1,-2.6520905E-1,-3.1438637E-1,-1.01994246E-1,4.110861E-2,1.8363851E-1,1.3847088E-2,-4.7520246E-2],"categories":[],"categories_nodes":[],"categories_segments":[],"categories_sizes":[],"default_left":[0,0,0,0,0,0,0,0,0,0,0,0,0,0,0,0,0,0,0,0,0,0,0,0,0],"id":49,"left_children":[1,3,-1,5,7,9,11,13,15,-1,17,-1,19,21,-1,-1,-1,-1,-1,23,-1,-1,-1,-1,-1],"loss_changes":[6.984046E3,1.3623975E3,0E0,1.4020447E2,1.3860143E3,8.754028E0,1.9716461E1,3.2683997E2,4.352823E1,0E0,1.45390625E1,0E0,6.577236E0,2.395134E0,0E0,0E0,0E0,0E0,0E0,2.417869E0,0E0,0E0,0E0,0E0,0E0],"parents":[2147483647,0,0,1,1,3,3,4,4,5,5,6,6,7,7,8,8,10,10,12,12,13,13,19,19],"right_children":[2,4,-1,6,8,10,12,14,16,-1,18,-1,20,22,-1,-1,-1,-1,-1,24,-1,-1,-1,-1,-1],"split_conditions":[1.6808893E-1,5.2162312E-2,2.0502074E0,6.448056E-2,5.2035525E-2,2.7257543E-2,6.719032E-5,9.656528E-4,9.1652244E-2,-8.9450516E-2,2.8878167E-2,-1.8116204E-1,6.0701266E-2,6.0946338E-2,7.7003574E-1,-2.9490478E-2,-3.7623444E-1,-4.972085E-1,-2.6520905E-1,3.4070794E-2,-1.01994246E-1,4.110861E-2,1.8363851E-1,1.3847088E-2,-4.7520246E-2],"split_indices":[5,5,0,3,8,1,9,8,1,0,1,0,2,5,0,0,0,0,0,1,0,0,0,0,0],"split_type":[0,0,0,0,0,0,0,0,0,0,0,0,0,0,0,0,0,0,0,0,0,0,0,0,0],"sum_hessian":[4.1E1,3.9E1,2E0,2.7E1,1.2E1,1.2E1,1.5E1,8E0,4E0,1E0,1.1E1,9E0,6E0,3E0,5E0,1E0,3E0,3E0,8E0,3E0,3E0,1E0,2E0,2E0,1E0],"tree_param":{"num_deleted":"0","num_feature":"11","num_nodes":"25","size_leaf_vector":"1"}},{"base_weights":[2.8491971E0,-2.34997E0,3.7901974E1,-5.5195975E0,4.901504E0,6.5217173E-1,1.9295428E0,-6.8202806E0,-2.7711816E0,9.269643E0,-7.244218E0,-2.0375825E-1,-3.3446088E-1,-1.5660438E-1,-1.7253418E0,3.5192897E0,6.090454E-1,-2.8863158E-2,-3.9167482E-1,-6.52209E-1,-8.611269E-2,5.2138392E-2,1.8547568E-1,-4.6443146E-2,4.823171E-3],"categories":[],"categories_nodes":[],"categories_segments":[],"categories_sizes":[],"default_left":[0,0,0,0,0,0,0,0,0,0,0,0,0,0,0,0,0,0,0,0,0,0,0,0,0],"id":50,"left_children":[1,3,5,7,9,-1,-1,11,13,15,17,-1,-1,-1,19,21,-1,-1,-1,23,-1,-1,-1,-1,-1],"loss_changes":[8.472351E3,9.694177E2,3.1416504E2,8.476953E1,7.5685596E2,0E0,0E0,2.5321045E0,4.1169662E0,2.398086E2,4.5293304E1,0E0,0E0,0E0,9.2447853E-1,6.2238083E0,0E0,0E0,0E0,1.133135E0,0E0,0E0,0E0,0E0,0E0],"parents":[2147483647,0,0,1,1,2,2,3,3,4,4,7,7,8,8,9,9,10,10,14,14,15,15,19,19],"right_children":[2,4,6,8,10,-1,-1,12,14,16,18,-1,-1,-1,20,22,-1,-1,-1,24,-1,-1,-1,-1,-1],"split_conditions":[9.1747954E-2,5.3465698E-2,8.526993E-2,2.9001795E-2,6.3996755E-2,6.5217173E-1,1.9295428E0,1.0993901E-3,3.0338268E-5,5.306161E-2,9.1652244E-2,-2.0375825E-1,-3.3446088E-1,-1.5660438E-1,1.9317092E-2,9.3291774E-2,6.090454E-1,-2.8863158E-2,-3.9167482E-1,1.9314084E-2,-8.611269E-2,5.2138392E-2,1.8547568E-1,-4.6443146E-2,4.823171E-3],"split_indices":[5,5,0,5,0,0,0,8,9,10,1,0,0,0,0,3,0,0,0,0,0,0,0,0,0],"split_type":[0,0,0,0,0,0,0,0,0,0,0,0,0,0,0,0,0,0,0,0,0,0,0,0,0],"sum_hessian":[4.5E1,4E1,5E0,2.8E1,1.2E1,2E0,3E0,1.8E1,1E1,9E0,3E0,8E0,1E1,4E0,6E0,5E0,4E0,1E0,2E0,2E0,4E0,2E0,3E0,1E0,1E0],"tree_param":{"num_deleted":"0","num_feature":"11","num_nodes":"25","size_leaf_vector":"1"}},{"base_weights":[1.5087788E0,-3.967101E0,3.593789E1,-7.9775147E0,-1.2952968E0,2.59707E-1,1.7307857E0,-9.7533045E0,-1.9376917E-1,1.407274E0,-5.0398153E-1,-8.3213575E-2,-1.0483465E1,-2.0560045E0,6.8591924E0,-4.956698E-1,-1.9797671E-1,-2.6920645E0,4.090683E-2,8.028798E0,-2.8249227E-2,-6.3833493E-1,-1.3092574E-1,1.640134E-1,5.2363104E-1,-4.5455225E-2,4.720606E-3],"categories":[],"categories_nodes":[],"categories_segments":[],"categories_sizes":[],"default_left":[0,0,0,0,0,0,0,0,0,0,0,0,0,0,0,0,0,0,0,0,0,0,0,0,0,0,0],"id":51,"left_children":[1,3,5,7,9,-1,-1,11,-1,13,-1,-1,15,17,19,-1,-1,21,-1,23,-1,25,-1,-1,-1,-1,-1],"loss_changes":[8.249346E3,3.9683832E2,6.0112305E2,4.6749084E1,7.010417E2,0E0,0E0,3.0733826E1,0E0,3.9173276E2,0E0,0E0,2.3937988E-1,2.754005E1,7.572485E1,0E0,0E0,6.743408E0,0E0,7.757477E1,0E0,1.0854424E0,0E0,0E0,0E0,0E0,0E0],"parents":[2147483647,0,0,1,1,2,2,3,3,4,4,7,7,9,9,12,12,13,13,14,14,17,17,19,19,21,21],"right_children":[2,4,6,8,10,-1,-1,12,-1,14,-1,-1,16,18,20,-1,-1,22,-1,24,-1,26,-1,-1,-1,-1,-1],"split_conditions":[1.2870435E-1,2.9001795E-2,2.9345268E-2,3.13454E-2,9.1652244E-2,2.59707E-1,1.7307857E0,1.6547661E-2,-1.9376917E-1,4.8944376E-2,-5.0398153E-1,-8.3213575E-2,5.5331416E-2,5.3465698E-2,6.3996755E-2,-4.956698E-1,-1.9797671E-1,1.9317092E-2,4.090683E-2,3.0875918E-2,-2.8249227E-2,1.9314084E-2,-1.3092574E-1,1.640134E-1,5.2363104E-1,-4.5455225E-2,4.720606E-3],"split_indices":[4,5,0,4,1,0,0,0,0,7,0,0,2,5,0,0,0,0,0,0,0,0,0,0,0,0,0],"split_type":[0,0,0,0,0,0,0,0,0,0,0,0,0,0,0,0,0,0,0,0,0,0,0,0,0,0,0],"sum_hessian":[4.2E1,3.7E1,5E0,1.4E1,2.3E1,1E0,4E0,8E0,6E0,1.9E1,4E0,1E0,7E0,1.2E1,7E0,5E0,2E0,1E1,2E0,6E0,1E0,2E0,8E0,4E0,2E0,1E0,1E0],"tree_param":{"num_deleted":"0","num_feature":"11","num_nodes":"27","size_leaf_vector":"1"}},{"base_weights":[1.2496464E0,-3.48863E0,3.5115307E1,-6.796421E0,1.070885E0,5.3891766E-1,1.9509084E0,-1.0179619E1,-4.7645006E0,3.4658701E0,-4.4510913E-1,-8.144351E-2,-4.7809726E-1,-2.5454555E0,-2.2717826E-1,-1.2361321E0,8.344462E0,-1.4866003E-1,2.6594466E-2,-1.6505928E0,3.5418663E-2,1.1086805E1,9.924037E-1,-6.247571E-1,-8.236139E-2,1.7178094E-1,6.143212E-1,9.0977475E-2,-2.7648358E-2,-4.448832E-2,4.62015E-3],"categories":[],"categories_nodes":[],"categories_segments":[],"categories_sizes":[],"default_left":[0,0,0,0,0,0,0,0,0,0,0,0,0,0,0,0,0,0,0,0,0,0,0,0,0,0,0,0,0,0,0],"id":52,"left_children":[1,3,5,7,9,-1,-1,11,13,15,-1,-1,-1,17,-1,19,21,-1,-1,23,-1,25,27,29,-1,-1,-1,-1,-1,-1,-1],"loss_changes":[6.541099E3,5.502274E2,6.247993E2,9.586139E1,4.7822556E2,0E0,0E0,3.972516E1,5.5638123E0,3.31463E2,0E0,0E0,0E0,1.722768E1,0E0,8.233281E0,1.301305E2,0E0,0E0,8.397789E-1,0E0,5.988037E1,7.036539E0,1.0397526E0,0E0,0E0,0E0,0E0,0E0,0E0,0E0],"parents":[2147483647,0,0,1,1,2,2,3,3,4,4,7,7,8,8,9,9,13,13,15,15,16,16,19,19,21,21,22,22,23,23],"right_children":[2,4,6,8,10,-1,-1,12,14,16,-1,-1,-1,18,-1,20,22,-1,-1,24,-1,26,28,30,-1,-1,-1,-1,-1,-1,-1],"split_conditions":[1.2753867E-1,2.656075E-2,4.8493464E-2,4.1744724E-2,9.1652244E-2,5.3891766E-1,1.9509084E0,2.7257543E-2,5.4631174E-2,4.8944376E-2,-4.4510913E-1,-8.144351E-2,-4.7809726E-1,5.444363E-2,-2.2717826E-1,4.5827437E-2,4.0406656E-2,-1.4866003E-1,2.6594466E-2,3.4070794E-2,3.5418663E-2,6.341582E-2,5.3714465E-2,3.304673E-2,-8.236139E-2,1.7178094E-1,6.143212E-1,9.0977475E-2,-2.7648358E-2,-4.448832E-2,4.62015E-3],"split_indices":[4,7,1,3,1,0,0,1,2,7,0,0,0,2,0,1,1,0,0,1,0,5,1,1,0,0,0,0,0,0,0],"split_type":[0,0,0,0,0,0,0,0,0,0,0,0,0,0,0,0,0,0,0,0,0,0,0,0,0,0,0,0,0,0,0],"sum_hessian":[3.9E1,3.5E1,4E0,2E1,1.5E1,2E0,2E0,6E0,1.4E1,1.3E1,2E0,1E0,5E0,4E0,1E1,7E0,6E0,3E0,1E0,6E0,1E0,4E0,2E0,2E0,4E0,2E0,2E0,1E0,1E0,1E0,1E0],"tree_param":{"num_deleted":"0","num_feature":"11","num_nodes":"31","size_leaf_vector":"1"}},{"base_weights":[-1.1806184E0,-3.63034E0,6.876668E-1,-7.743232E0,-1.2973503E0,-9.826486E0,-2.2388302E-1,7.962679E-1,-1.1087248E1,-7.97111E-2,-4.6114767E-1,-2.310629E0,7.29889E0,-2.1582317E-1,-5.703103E-1,-2.808698E0,4.041229E-2,1.0772365E1,1.1323242E0,-3.8653724E0,-1.0488739E0,1.6690888E-1,5.968981E-1,8.2269475E-2,-2.706023E-2,-1.7284979E-1,-4.8593856E-2,4.787445E-1,-7.469074E-2,2.6028734E-2,4.521804E-3],"categories":[],"categories_nodes":[],"categories_segments":[],"categories_sizes":[],"default_left":[0,0,0,0,0,0,0,0,0,0,0,0,0,0,0,0,0,0,0,0,0,0,0,0,0,0,0,0,0,0,0],"id":53,"left_children":[1,3,-1,5,7,9,-1,11,13,-1,-1,15,17,-1,-1,19,-1,21,23,25,27,-1,-1,-1,-1,-1,-1,29,-1,-1,-1],"loss_changes":[2.0557107E3,3.929583E2,0E0,2.5805481E1,5.8272504E2,3.609375E1,0E0,5.0173648E2,1.7072754E0,0E0,0E0,3.0275734E1,1.5915753E2,0E0,0E0,2.3839127E1,0E0,5.6532043E1,6.8994694E0,2.0219421E-1,8.398523E0,0E0,0E0,0E0,0E0,0E0,0E0,8.3672404E-2,0E0,0E0,0E0],"parents":[2147483647,0,0,1,1,3,3,4,4,5,5,7,7,8,8,11,11,12,12,15,15,17,17,18,18,19,19,20,20,27,27],"right_children":[2,4,-1,6,8,10,-1,12,14,-1,-1,16,18,-1,-1,20,-1,22,24,26,28,-1,-1,-1,-1,-1,-1,30,-1,-1,-1],"split_conditions":[1.2753867E-1,6.448056E-2,6.876668E-1,4.1744724E-2,9.1652244E-2,2.7257543E-2,-2.2388302E-1,4.8944376E-2,1.0073122E-1,-7.97111E-2,-4.6114767E-1,5.3465698E-2,5.6180827E-2,-2.1582317E-1,-5.703103E-1,3.0338268E-5,4.041229E-2,6.341582E-2,5.3714465E-2,8.255775E-2,3.4070794E-2,1.6690888E-1,5.968981E-1,8.2269475E-2,-2.706023E-2,-1.7284979E-1,-4.8593856E-2,3.0472774E-2,-7.469074E-2,2.6028734E-2,4.521804E-3],"split_indices":[4,3,0,3,1,1,0,7,1,0,0,5,7,0,0,9,0,5,1,2,1,0,0,0,0,0,0,1,0,0,0],"split_type":[0,0,0,0,0,0,0,0,0,0,0,0,0,0,0,0,0,0,0,0,0,0,0,0,0,0,0,0,0,0,0],"sum_hessian":[4.6E1,4.1E1,5E0,1.4E1,2.7E1,6E0,8E0,2.3E1,4E0,1E0,5E0,1.6E1,7E0,2E0,2E0,1.4E1,2E0,4E0,3E0,8E0,6E0,2E0,2E0,2E0,1E0,7E0,1E0,2E0,4E0,1E0,1E0],"tree_param":{"num_deleted":"0","num_feature":"11","num_nodes":"31","size_leaf_vector":"1"}},{"base_weights":[6.6711444E-1,-3.2656903E0,3.3569252E1,-5.3654437E0,4.8174977E-1,5.0412935E-1,1.8760747E0,-7.683228E0,-3.550087E0,4.167316E0,-4.9420765E-1,-1.2002717E-1,-3.594918E-1,-3.6696105E0,-3.4836214E-2,1.2070087E0,5.799689E-1,-2.0900788E0,-4.021948E0,-1.3129905E0,2.8345783E0,-1.23884216E-1,2.547509E-2,-1.7801163E-1,-4.7560167E-2,4.425568E-3,-7.203529E-2,3.926611E-2,3.4146194E0,1.6527744E-1,3.2611907E-2],"categories":[],"categories_nodes":[],"categories_segments":[],"categories_sizes":[],"default_left":[0,0,0,0,0,0,0,0,0,0,0,0,0,0,0,0,0,0,0,0,0,0,0,0,0,0,0,0,0,0,0],"id":54,"left_children":[1,3,5,7,9,-1,-1,11,13,15,-1,-1,-1,17,-1,19,-1,21,23,25,27,-1,-1,-1,-1,-1,-1,-1,29,-1,-1],"loss_changes":[6.0619204E3,3.3307025E2,6.2089404E2,8.632922E1,7.6184955E2,0E0,0E0,1.7175537E1,2.5447083E0,3.4780988E2,0E0,0E0,0E0,4.9824524E-1,0E0,4.8837994E1,0E0,1.2794111E1,9.8043823E-1,2.870325E0,4.609989E0,0E0,0E0,0E0,0E0,0E0,0E0,0E0,3.2496796E0,0E0,0E0],"parents":[2147483647,0,0,1,1,2,2,3,3,4,4,7,7,8,8,9,9,13,13,15,15,17,17,18,18,19,19,20,20,28,28],"right_children":[2,4,6,8,10,-1,-1,12,14,16,-1,-1,-1,18,-1,20,-1,22,24,26,28,-1,-1,-1,-1,-1,-1,-1,30,-1,-1],"split_conditions":[1.2753867E-1,2.4718447E-2,4.7825545E-2,3.270173E-2,3.924511E-2,5.0412935E-1,1.8760747E0,7.623237E-3,4.732628E-2,3.2213863E-2,-4.9420765E-1,-1.2002717E-1,-3.594918E-1,3.0472774E-2,-3.4836214E-2,5.3465698E-2,5.799689E-1,3.0333804E-2,8.438044E-2,6.838389E-5,4.8944376E-2,-1.23884216E-1,2.547509E-2,-1.7801163E-1,-4.7560167E-2,4.425568E-3,-7.203529E-2,3.926611E-2,1.0242893E-4,1.6527744E-1,3.2611907E-2],"split_indices":[4,10,0,4,0,0,0,7,1,0,0,0,0,1,0,5,0,1,4,9,7,0,0,0,0,0,0,0,9,0,0],"split_type":[0,0,0,0,0,0,0,0,0,0,0,0,0,0,0,0,0,0,0,0,0,0,0,0,0,0,0,0,0,0,0],"sum_hessian":[4.5E1,4.1E1,4E0,2.6E1,1.5E1,2E0,2E0,1E1,1.6E1,1.2E1,3E0,2E0,8E0,1.5E1,1E0,1E1,2E0,4E0,1.1E1,4E0,6E0,3E0,1E0,1E1,1E0,1E0,3E0,2E0,4E0,3E0,1E0],"tree_param":{"num_deleted":"0","num_feature":"11","num_nodes":"31","size_leaf_vector":"1"}},{"base_weights":[-4.2926198E-1,-4.0001516E0,1.6466253E1,-3.0295846E0,-5.4011875E-1,2.717064E-1,8.176998E-1,-5.475408E0,2.6541853E0,-7.3659215E0,-3.5999815E0,4.1330618E-1,-3.2543778E-1,-1.8845919E-1,-4.0057954E-1,-1.5974525E-1,-3.7019704E-2,1.8659605E0,-1.9568542E-1,4.3314416E-3,9.3526736E-2],"categories":[],"categories_nodes":[],"categories_segments":[],"categories_sizes":[],"default_left":[0,0,0,0,0,0,0,0,0,0,0,0,0,0,0,0,0,0,0,0,0],"id":55,"left_children":[1,3,5,7,-1,-1,-1,9,11,13,15,-1,17,-1,-1,-1,-1,19,-1,-1,-1],"loss_changes":[2.4188164E3,2.4005194E2,7.1591064E1,4.454792E2,0E0,0E0,0E0,5.148419E1,2.1355087E2,1.847821E1,2.2319489E0,0E0,8.3516815E1,0E0,0E0,0E0,0E0,3.2952843E0,0E0,0E0,0E0],"parents":[2147483647,0,0,1,1,2,2,3,3,7,7,8,8,9,9,10,10,12,12,17,17],"right_children":[2,4,6,8,-1,-1,-1,10,12,14,16,-1,18,-1,-1,-1,-1,20,-1,-1,-1],"split_conditions":[1.2753867E-1,1.444376E-1,8.516366E-2,8.438044E-2,-5.4011875E-1,2.717064E-1,8.176998E-1,4.4928234E-2,5.866149E-2,9.332747E-3,6.287389E-3,4.1330618E-1,8.563009E-2,-1.8845919E-1,-4.0057954E-1,-1.5974525E-1,-3.7019704E-2,9.084563E-2,-1.9568542E-1,4.3314416E-3,9.3526736E-2],"split_indices":[4,2,2,4,0,0,0,3,2,7,8,0,2,0,0,0,0,3,0,0,0],"split_type":[0,0,0,0,0,0,0,0,0,0,0,0,0,0,0,0,0,0,0,0,0],"sum_hessian":[3.8E1,3.2E1,6E0,3E1,2E0,2E0,4E0,2.1E1,9E0,9E0,1.2E1,2E0,7E0,5E0,4E0,1.1E1,1E0,5E0,2E0,1E0,4E0],"tree_param":{"num_deleted":"0","num_feature":"11","num_nodes":"21","size_leaf_vector":"1"}},{"base_weights":[1.2978247E0,-2.6640425E0,1.642616E0,-5.449781E0,3.1123614E0,-8.959335E0,-3.9489481E0,7.5155115E0,-3.6899742E-1,-7.145361E-2,-4.208609E-1,-4.485378E0,-8.294591E-2,3.8934796E0,5.094554E-1,-1.9969125E-1,-3.3307794E-2,2.9928653E-2,4.3078933E0,2.0753029E-1,3.0980922E-2],"categories":[],"categories_nodes":[],"categories_segments":[],"categories_sizes":[],"default_left":[0,0,0,0,0,0,0,0,0,0,0,0,0,0,0,0,0,0,0,0,0],"id":56,"left_children":[1,3,-1,5,7,9,11,13,-1,-1,-1,15,-1,17,-1,-1,-1,-1,19,-1,-1],"loss_changes":[6.163903E3,6.284407E2,0E0,1.01568726E2,7.398264E2,3.0947021E1,1.2703766E1,1.1490576E2,0E0,0E0,0E0,7.9064636E0,0E0,6.2232056E0,0E0,0E0,0E0,0E0,8.696106E0,0E0,0E0],"parents":[2147483647,0,0,1,1,3,3,4,4,5,5,6,6,7,7,11,11,13,13,18,18],"right_children":[2,4,-1,6,8,10,12,14,-1,-1,-1,16,-1,18,-1,-1,-1,-1,20,-1,-1],"split_conditions":[8.5376464E-2,5.3465698E-2,1.642616E0,4.1744724E-2,6.3996755E-2,1.6547661E-2,6.902598E-2,3.0955892E-2,-3.6899742E-1,-7.145361E-2,-4.208609E-1,4.732628E-2,-8.294591E-2,9.3291774E-2,5.094554E-1,-1.9969125E-1,-3.3307794E-2,2.9928653E-2,3.0875918E-2,2.0753029E-1,3.0980922E-2],"split_indices":[0,5,0,3,0,0,4,0,0,0,0,1,0,3,0,0,0,0,0,0,0],"split_type":[0,0,0,0,0,0,0,0,0,0,0,0,0,0,0,0,0,0,0,0,0],"sum_hessian":[4E1,3.7E1,3E0,2.5E1,1.2E1,6E0,1.9E1,9E0,3E0,1E0,5E0,1.4E1,5E0,6E0,3E0,1.3E1,1E0,1E0,5E0,4E0,1E0],"tree_param":{"num_deleted":"0","num_feature":"11","num_nodes":"21","size_leaf_vector":"1"}},{"base_weights":[1.6652076E0,-1.3421204E0,1.7530879E0,-3.0978372E0,9.123248E0,-2.1865048E0,-5.143347E-1,7.7372625E-2,4.348027E-1,-3.810922E0,7.6724143E0,-6.666598E0,-2.1925378E0,1.11735E1,-1.3468827E-1,-6.993371E-2,-7.0420303E0,-2.5718443E0,3.463595E-2,1.3787356E-1,5.418836E-1,-3.9085498E-1,-1.888092E-1,-1.4606425E-1,-1.5392901E0,-3.2452315E-1,-2.2950475E0,3.257888E-2,-3.3547007E-2,-1.1416389E-1,-4.3055948E-2],"categories":[],"categories_nodes":[],"categories_segments":[],"categories_sizes":[],"default_left":[0,0,0,0,0,0,0,0,0,0,0,0,0,0,0,0,0,0,0,0,0,0,0,0,0,0,0,0,0,0,0],"id":57,"left_children":[1,3,-1,5,7,9,-1,-1,-1,11,13,15,17,19,-1,-1,21,23,-1,-1,-1,-1,-1,-1,25,27,29,-1,-1,-1,-1],"loss_changes":[5.049848E3,7.632312E2,0E0,2.6038132E2,2.9497772E1,5.577339E2,0E0,0E0,0E0,1.1940909E2,2.2510535E2,7.280945E0,2.4902977E1,8.34491E0,0E0,0E0,9.501984E0,1.0727287E1,0E0,0E0,0E0,0E0,0E0,0E0,8.435892E0,3.1335592E0,2.7451897E-1,0E0,0E0,0E0,0E0],"parents":[2147483647,0,0,1,1,3,3,4,4,5,5,9,9,10,10,11,11,12,12,13,13,16,16,17,17,24,24,25,25,26,26],"right_children":[2,4,-1,6,8,10,-1,-1,-1,12,14,16,18,20,-1,-1,22,24,-1,-1,-1,-1,-1,-1,26,28,30,-1,-1,-1,-1],"split_conditions":[8.5376464E-2,1.2596177E-1,1.7530879E0,9.32106E-2,1.2753867E-1,6.0946338E-2,-5.143347E-1,7.7372625E-2,4.348027E-1,3.270173E-2,3.924511E-2,1.6547661E-2,5.3465698E-2,1.824988E-2,-1.3468827E-1,-6.993371E-2,2.8878167E-2,3.0338268E-5,3.463595E-2,1.3787356E-1,5.418836E-1,-3.9085498E-1,-1.888092E-1,-1.4606425E-1,1.736794E-4,1.8223815E-2,3.151064E-2,3.257888E-2,-3.3547007E-2,-1.1416389E-1,-4.3055948E-2],"split_indices":[0,4,0,1,4,5,0,0,0,4,0,0,5,0,0,0,1,9,0,0,0,0,0,0,9,0,0,0,0,0,0],"split_type":[0,0,0,0,0,0,0,0,0,0,0,0,0,0,0,0,0,0,0,0,0,0,0,0,0,0,0,0,0,0,0],"sum_hessian":[4.1E1,3.9E1,2E0,3.4E1,5E0,3.2E1,2E0,1E0,4E0,2.8E1,4E0,9E0,1.9E1,3E0,1E0,1E0,8E0,1.7E1,2E0,1E0,2E0,3E0,5E0,8E0,9E0,4E0,5E0,1E0,3E0,3E0,2E0],"tree_param":{"num_deleted":"0","num_feature":"11","num_nodes":"31","size_leaf_vector":"1"}},{"base_weights":[4.4927078E-1,-2.3892727E0,1.7033675E0,-4.365492E0,1.0949264E0,-3.6259183E-1,-3.691967E0,3.3475826E0,-4.5304337E0,-2.2645433E0,-4.2304873E0,-4.974884E-1,5.332304E0,-3.448508E-1,2.0786083E-1,-1.2385913E-1,-7.2809887E-1,-1.9971144E-1,-6.590725E-2,5.688782E-1,-5.947561E-2,3.8177717E-1,2.622738E0,3.188592E-2,-6.255755E-2,6.717223E-3,2.9585091E-2,3.1575866E0,-1.0955998E-3,1.77654E-2,1.5903214E-1],"categories":[],"categories_nodes":[],"categories_segments":[],"categories_sizes":[],"default_left":[0,0,0,0,0,0,0,0,0,0,0,0,0,0,0,0,0,0,0,0,0,0,0,0,0,0,0,0,0,0,0],"id":58,"left_children":[1,3,-1,5,7,-1,9,11,13,15,17,19,21,-1,-1,-1,23,-1,-1,25,-1,-1,27,-1,-1,-1,-1,29,-1,-1,-1],"loss_changes":[5.040275E3,2.9397256E2,0E0,4.4138855E1,2.1791803E2,0E0,9.637299E0,9.422949E1,2.079508E2,6.8251495E0,1.3872925E1,5.59682E0,5.540291E1,0E0,0E0,0E0,5.4898453E0,0E0,0E0,4.622054E-2,0E0,0E0,8.58057E0,0E0,0E0,0E0,0E0,6.3931885E0,0E0,0E0,0E0],"parents":[2147483647,0,0,1,1,3,3,4,4,6,6,7,7,8,8,9,9,10,10,11,11,12,12,16,16,19,19,22,22,27,27],"right_children":[2,4,-1,6,8,-1,10,12,14,16,18,20,22,-1,-1,-1,24,-1,-1,26,-1,-1,28,-1,-1,-1,-1,30,-1,-1,-1],"split_conditions":[8.5376464E-2,2.4718447E-2,1.7033675E0,2.2176186E-2,9.1652244E-2,-3.6259183E-1,2.040445E-2,4.8944376E-2,1.01102784E-1,5.444363E-2,8.2217835E-2,3.0955892E-2,5.866149E-2,-3.448508E-1,2.0786083E-1,-1.2385913E-1,1.8223815E-2,-1.9971144E-1,-6.590725E-2,1.9317092E-2,-5.947561E-2,3.8177717E-1,6.3996755E-2,3.188592E-2,-6.255755E-2,6.717223E-3,2.9585091E-2,1.9740589E-2,-1.0955998E-3,1.77654E-2,1.5903214E-1],"split_indices":[0,10,0,4,1,0,0,7,1,2,2,0,2,0,0,0,0,0,0,0,0,0,0,0,0,0,0,0,0,0,0],"split_type":[0,0,0,0,0,0,0,0,0,0,0,0,0,0,0,0,0,0,0,0,0,0,0,0,0,0,0,0,0,0,0],"sum_hessian":[4.3E1,4.1E1,2E0,2.6E1,1.5E1,2E0,2.4E1,1.1E1,4E0,8E0,1.6E1,4E0,7E0,3E0,1E0,5E0,3E0,1.3E1,3E0,2E0,2E0,2E0,5E0,1E0,2E0,1E0,1E0,4E0,1E0,1E0,3E0],"tree_param":{"num_deleted":"0","num_feature":"11","num_nodes":"31","size_leaf_vector":"1"}},{"base_weights":[1.6146187E0,-2.4487553E0,2.9735312E1,-4.905092E0,2.667981E0,6.256018E-1,1.9113383E0,-9.062898E0,-3.3339376E0,5.2540197E0,-2.9105395E-1,-4.162627E-1,-1.1602043E-1,-4.0357575E0,-1.5542815E0,2.286123E0,9.134334E0,-9.045566E-2,-1.9774571E-1,3.1207638E-2,-8.754621E-2,2.5102237E-2,2.8465424E0,5.188457E-1,-1.0723117E-3,1.368962E-1,2.8955743E-2],"categories":[],"categories_nodes":[],"categories_segments":[],"categories_sizes":[],"default_left":[0,0,0,0,0,0,0,0,0,0,0,0,0,0,0,0,0,0,0,0,0,0,0,0,0,0,0],"id":59,"left_children":[1,3,5,7,9,-1,-1,11,13,15,-1,-1,-1,17,19,21,23,-1,-1,-1,-1,-1,25,-1,-1,-1,-1],"loss_changes":[4.529145E3,4.5298163E2,4.810298E2,1.2656616E2,3.3104706E2,0E0,0E0,7.514038E-1,1.7458237E1,9.4281494E1,0E0,0E0,0E0,5.31958E0,9.574152E0,4.973984E0,1.1247812E2,0E0,0E0,0E0,0E0,0E0,1.83107E0,0E0,0E0,0E0,0E0],"parents":[2147483647,0,0,1,1,2,2,3,3,4,4,7,7,8,8,9,9,13,13,14,14,15,15,16,16,22,22],"right_children":[2,4,6,8,10,-1,-1,12,14,16,-1,-1,-1,18,20,22,24,-1,-1,-1,-1,-1,26,-1,-1,-1,-1],"split_conditions":[9.1747954E-2,5.3465698E-2,1.3710275E-1,4.1744724E-2,9.1652244E-2,6.256018E-1,1.9113383E0,2.9141141E-2,7.3677074E-5,3.0955892E-2,-2.9105395E-1,-4.162627E-1,-1.1602043E-1,2.040445E-2,1.8223815E-2,9.3291774E-2,3.924511E-2,-9.045566E-2,-1.9774571E-1,3.1207638E-2,-8.754621E-2,2.5102237E-2,3.0875918E-2,5.188457E-1,-1.0723117E-3,1.368962E-1,2.8955743E-2],"split_indices":[5,5,0,3,1,0,0,0,9,0,0,0,0,0,0,3,0,0,0,0,0,0,0,0,0,0,0],"split_type":[0,0,0,0,0,0,0,0,0,0,0,0,0,0,0,0,0,0,0,0,0,0,0,0,0,0,0],"sum_hessian":[3.8E1,3.4E1,4E0,2.3E1,1.1E1,3E0,1E0,5E0,1.8E1,9E0,2E0,4E0,1E0,1.2E1,6E0,6E0,3E0,4E0,8E0,1E0,5E0,2E0,4E0,2E0,1E0,3E0,1E0],"tree_param":{"num_deleted":"0","num_feature":"11","num_nodes":"27","size_leaf_vector":"1"}},{"base_weights":[8.9668685E-1,-1.5463632E0,1.6190808E0,-2.9679935E0,8.4258375E0,-2.211518E0,-5.0254875E-1,6.9431916E-2,4.023754E-1,-4.046849E0,3.5156264E0,-5.864859E0,-2.5090165E0,7.589836E0,-2.0765507E0,-1.3412714E-1,-3.0485225E-1,3.0543802E-2,-2.7410715E0,2.49724E0,5.041303E-1,4.2765555E-1,-1.6542993E-1,-2.9299066E0,-3.757378E-2,1.685351E-2,1.3041636E-1,2.8339863E-2,-1.0495103E-3,-1.4864759E-1,-8.506324E-2],"categories":[],"categories_nodes":[],"categories_segments":[],"categories_sizes":[],"default_left":[0,0,0,0,0,0,0,0,0,0,0,0,0,0,0,0,0,0,0,0,0,0,0,0,0,0,0,0,0,0,0],"id":60,"left_children":[1,3,-1,5,7,9,-1,-1,-1,11,13,15,17,19,21,-1,-1,-1,23,25,-1,27,-1,29,-1,-1,-1,-1,-1,-1,-1],"loss_changes":[4.4166123E3,6.771397E2,0E0,2.4820303E2,2.6644867E1,4.241642E2,0E0,0E0,0E0,6.915881E1,2.4359769E2,2.3275757E1,1.5447014E1,1.0057999E2,2.435136E1,0E0,0E0,0E0,3.376419E0,3.5618248E0,0E0,3.4006894E-1,0E0,8.875427E-1,0E0,0E0,0E0,0E0,0E0,0E0,0E0],"parents":[2147483647,0,0,1,1,3,3,4,4,5,5,9,9,10,10,11,11,12,12,13,13,14,14,18,18,19,19,21,21,23,23],"right_children":[2,4,-1,6,8,10,-1,-1,-1,12,14,16,18,20,22,-1,-1,-1,24,26,-1,28,-1,30,-1,-1,-1,-1,-1,-1,-1],"split_conditions":[8.5376464E-2,1.2596177E-1,1.6190808E0,1.0073122E-1,1.2753867E-1,5.3465698E-2,-5.0254875E-1,6.9431916E-2,4.023754E-1,6.448056E-2,4.0406656E-2,2.2305947E-2,6.639824E-2,1.9784564E-2,9.1652244E-2,-1.3412714E-1,-3.0485225E-1,3.0543802E-2,4.464767E-4,9.3291774E-2,5.041303E-1,3.0955892E-2,-1.6542993E-1,6.902598E-2,-3.757378E-2,1.685351E-2,1.3041636E-1,2.8339863E-2,-1.0495103E-3,-1.4864759E-1,-8.506324E-2],"split_indices":[0,4,0,1,4,5,0,0,0,3,1,0,3,0,1,0,0,0,9,3,0,0,0,4,0,0,0,0,0,0,0],"split_type":[0,0,0,0,0,0,0,0,0,0,0,0,0,0,0,0,0,0,0,0,0,0,0,0,0,0,0,0,0,0,0],"sum_hessian":[4.7E1,4.5E1,2E0,4E1,5E0,3.8E1,2E0,1E0,4E0,2.9E1,9E0,1.2E1,1.7E1,5E0,4E0,5E0,7E0,1E0,1.6E1,3E0,2E0,2E0,2E0,1.4E1,2E0,1E0,2E0,1E0,1E0,7E0,7E0],"tree_param":{"num_deleted":"0","num_feature":"11","num_nodes":"31","size_leaf_vector":"1"}},{"base_weights":[1.3880973E0,-2.4643261E0,2.6839571E1,-4.256165E0,2.0713117E0,6.356928E-1,1.8362416E0,-8.125475E0,-3.1114974E0,4.4130077E0,-2.7332667E-1,-5.410399E-2,-3.931728E-1,-1.791873E-1,-2.410607E0,1.2877585E-2,5.4027476E0,2.9894086E-2,-2.6491058E0,6.679264E0,1.0487989E0,-2.8436592E0,-3.6508095E-2,6.89423E-2,3.134068E-1,6.795511E-2,-1.027196E-3,-1.2964769E-1,-4.596667E-2],"categories":[],"categories_nodes":[],"categories_segments":[],"categories_sizes":[],"default_left":[0,0,0,0,0,0,0,0,0,0,0,0,0,0,0,0,0,0,0,0,0,0,0,0,0,0,0,0,0],"id":61,"left_children":[1,3,5,7,9,-1,-1,11,13,15,-1,-1,-1,-1,17,-1,19,-1,21,23,25,27,-1,-1,-1,-1,-1,-1,-1],"loss_changes":[4.4783853E3,3.3390115E2,5.2021045E2,1.0316077E2,2.6709576E2,0E0,0E0,3.415509E1,8.357773E0,3.9045975E1,0E0,0E0,0E0,0E0,1.4484276E1,0E0,3.7457886E1,0E0,3.134674E0,8.932831E0,1.8042407E0,1.7384567E0,0E0,0E0,0E0,0E0,0E0,0E0,0E0],"parents":[2147483647,0,0,1,1,2,2,3,3,4,4,7,7,8,8,9,9,14,14,16,16,18,18,19,19,20,20,21,21],"right_children":[2,4,6,8,10,-1,-1,12,14,16,-1,-1,-1,-1,18,-1,20,-1,22,24,26,28,-1,-1,-1,-1,-1,-1,-1],"split_conditions":[9.1747954E-2,4.5572907E-2,1.3710275E-1,4.1744724E-2,9.1652244E-2,6.356928E-1,1.8362416E0,1.6547661E-2,6.448056E-2,9.25171E-2,-2.7332667E-1,-5.410399E-2,-3.931728E-1,-1.791873E-1,6.639824E-2,1.2877585E-2,4.8493464E-2,2.9894086E-2,6.287389E-3,9.330714E-2,3.0875918E-2,3.9025426E-2,-3.6508095E-2,6.89423E-2,3.134068E-1,6.795511E-2,-1.027196E-3,-1.2964769E-1,-4.596667E-2],"split_indices":[5,5,0,3,1,0,0,0,3,3,0,0,0,0,3,0,1,0,8,3,0,5,0,0,0,0,0,0,0],"split_type":[0,0,0,0,0,0,0,0,0,0,0,0,0,0,0,0,0,0,0,0,0,0,0,0,0,0,0,0,0],"sum_hessian":[4.4E1,3.9E1,5E0,2.8E1,1.1E1,4E0,1E0,5E0,2.3E1,9E0,2E0,1E0,4E0,7E0,1.6E1,2E0,7E0,1E0,1.5E1,5E0,2E0,1.3E1,2E0,1E0,4E0,1E0,1E0,1.1E1,2E0],"tree_param":{"num_deleted":"0","num_feature":"11","num_nodes":"29","size_leaf_vector":"1"}},{"base_weights":[5.416935E-1,-2.2672465E0,1.1298792E1,-4.509432E0,-4.4390476E-1,1.4339966E1,-1.477983E-1,-3.2312596E-1,-1.3327363E-1,-1.4422988E0,2.0410218E0,1.7640473E-1,6.6150904E-1,2.9258164E-2,-1.6984601E0,1.5028592E-2,2.3746471E0,-8.410375E-2,-9.6890867E-1,1.2065122E-1,2.1070378E-2,1.0033884E-2,-5.6541782E-2],"categories":[],"categories_nodes":[],"categories_segments":[],"categories_sizes":[],"default_left":[0,0,0,0,0,0,0,0,0,0,0,0,0,0,0,0,0,0,0,0,0,0,0],"id":62,"left_children":[1,3,5,7,9,11,-1,-1,-1,13,15,-1,-1,-1,17,-1,19,-1,21,-1,-1,-1,-1],"loss_changes":[1.0227466E3,1.0838153E2,3.643081E2,2.7187363E1,4.2638733E1,9.489868E0,0E0,0E0,0E0,7.7156944E0,1.9765339E0,0E0,0E0,0E0,3.1928444E-1,0E0,2.0636806E0,0E0,2.482973E0,0E0,0E0,0E0,0E0],"parents":[2147483647,0,0,1,1,2,2,3,3,4,4,5,5,9,9,10,10,14,14,16,16,18,18],"right_children":[2,4,6,8,10,12,-1,-1,-1,14,16,-1,-1,-1,18,-1,20,-1,22,-1,-1,-1,-1],"split_conditions":[5.306161E-2,1.3365538E-2,6.3067965E-2,2.2176186E-2,9.620641E-2,2.9345268E-2,-1.477983E-1,-3.2312596E-1,-1.3327363E-1,6.639824E-2,9.3291774E-2,1.7640473E-1,6.6150904E-1,2.9258164E-2,2.0157695E-2,1.5028592E-2,3.0875918E-2,-8.410375E-2,1.9317092E-2,1.2065122E-1,2.1070378E-2,1.0033884E-2,-5.6541782E-2],"split_indices":[10,10,8,4,4,0,0,0,0,3,3,0,0,0,10,0,0,0,0,0,0,0,0],"split_type":[0,0,0,0,0,0,0,0,0,0,0,0,0,0,0,0,0,0,0,0,0,0,0],"sum_hessian":[3.2E1,2.6E1,6E0,1.1E1,1.5E1,5E0,1E0,2E0,9E0,1.1E1,4E0,1E0,4E0,1E0,1E1,1E0,3E0,6E0,4E0,2E0,1E0,1E0,3E0],"tree_param":{"num_deleted":"0","num_feature":"11","num_nodes":"23","size_leaf_vector":"1"}},{"base_weights":[1.4495641E0,-1.1126497E0,1.5308222E0,-3.2539546E0,2.8158758E0,-6.3998785E0,-2.4285817E0,6.124559E0,-5.0264025E0,-9.73253E-2,-3.5645357E-1,-1.1110194E0,-2.9355764E0,2.155347E0,3.8598925E-1,2.1384566E-3,-2.6836437E-1,-8.487615E-2,-1.8156128E-1,-3.184347E0,-3.386909E-2,2.0372976E-2,1.222613E-1,2.8635794E-2,-5.635061E-1,-1.4505167E-1,-5.198817E-2,-3.851099E-2,9.820476E-3],"categories":[],"categories_nodes":[],"categories_segments":[],"categories_sizes":[],"default_left":[0,0,0,0,0,0,0,0,0,0,0,0,0,0,0,0,0,0,0,0,0,0,0,0,0,0,0,0,0],"id":63,"left_children":[1,3,-1,5,7,9,11,13,15,-1,-1,17,19,21,-1,-1,-1,-1,23,25,-1,-1,-1,-1,27,-1,-1,-1,-1],"loss_changes":[3.8447974E3,3.5406174E2,0E0,5.4564484E1,4.199987E2,2.1518997E1,1.21024475E1,1.0917786E2,3.2851776E1,0E0,0E0,6.211401E0,5.980606E0,5.8510914E0,0E0,0E0,0E0,0E0,2.0114856E0,2.020691E0,0E0,0E0,0E0,0E0,1.2947624E0,0E0,0E0,0E0,0E0],"parents":[2147483647,0,0,1,1,3,3,4,4,5,5,6,6,7,7,8,8,11,11,12,12,13,13,18,18,19,19,24,24],"right_children":[2,4,-1,6,8,10,12,14,16,-1,-1,18,20,22,-1,-1,-1,-1,24,26,-1,-1,-1,-1,28,-1,-1,-1,-1],"split_conditions":[8.5376464E-2,4.5924157E-2,1.5308222E0,4.1744724E-2,5.2035525E-2,1.1932744E-3,1.996377E-2,5.306161E-2,9.1652244E-2,-9.73253E-2,-3.5645357E-1,3.0333804E-2,2.0077983E-3,4.8944376E-2,3.8598925E-1,2.1384566E-3,-2.6836437E-1,-8.487615E-2,1.8223815E-2,8.2217835E-2,-3.386909E-2,2.0372976E-2,1.222613E-1,2.8635794E-2,8.605153E-2,-1.4505167E-1,-5.198817E-2,-3.851099E-2,9.820476E-3],"split_indices":[0,7,0,3,8,8,0,10,1,0,0,1,8,7,0,0,0,0,0,2,0,0,0,0,3,0,0,0,0],"split_type":[0,0,0,0,0,0,0,0,0,0,0,0,0,0,0,0,0,0,0,0,0,0,0,0,0,0,0,0,0],"sum_hessian":[4.2E1,4E1,2E0,2.6E1,1.4E1,4E0,2.2E1,1E1,4E0,2E0,2E0,7E0,1.5E1,5E0,5E0,1E0,3E0,3E0,4E0,1.3E1,2E0,2E0,3E0,1E0,3E0,1.1E1,2E0,2E0,1E0],"tree_param":{"num_deleted":"0","num_feature":"11","num_nodes":"29","size_leaf_vector":"1"}},{"base_weights":[9.72322E-1,-1.0309292E0,1.7677636E0,-2.5380085E0,4.3936452E-1,-1.5709044E0,-4.3069646E-1,-3.7376611E0,4.003078E0,-7.354873E0,-2.6984363E0,5.5331497E0,-1.4114729E0,-4.8048005E-2,-3.6709508E-1,-1.4952612E-1,-1.7933129E0,2.0241115E0,4.554967E-1,-9.216448E-2,2.092935E-3,-2.618378E0,-5.318515E-1,1.4408169E-2,1.18360244E-1,-1.1916588E-1,-3.2376267E-2,2.5092175E-2,-5.2758627E-2],"categories":[],"categories_nodes":[],"categories_segments":[],"categories_sizes":[],"default_left":[0,0,0,0,0,0,0,0,0,0,0,0,0,0,0,0,0,0,0,0,0,0,0,0,0,0,0,0,0],"id":64,"left_children":[1,3,-1,5,-1,7,-1,9,11,13,15,17,19,-1,-1,-1,21,23,-1,-1,-1,25,27,-1,-1,-1,-1,-1,-1],"loss_changes":[3.4571404E3,7.280606E2,0E0,2.5554088E2,0E0,4.2559592E2,0E0,7.413074E1,9.06564E1,2.9911102E1,9.212952E0,1.2356564E2,3.4147E0,0E0,0E0,0E0,1.1096867E1,6.7235947E0,0E0,0E0,0E0,2.4388123E-1,5.4982033E0,0E0,0E0,0E0,0E0,0E0,0E0],"parents":[2147483647,0,0,1,1,3,3,5,5,7,7,8,8,9,9,10,10,11,11,12,12,16,16,17,17,21,21,22,22],"right_children":[2,4,-1,6,-1,8,-1,10,12,14,16,18,20,-1,-1,-1,22,24,-1,-1,-1,26,28,-1,-1,-1,-1,-1,-1],"split_conditions":[9.360153E-2,1.2753867E-1,1.7677636E0,7.1328595E-2,4.3936452E-1,5.3465698E-2,-4.3069646E-1,4.1744724E-2,3.924511E-2,1.6547661E-2,5.63653E-2,3.0875918E-2,6.767281E-2,-4.8048005E-2,-3.6709508E-1,-1.4952612E-1,3.0338268E-5,9.3291774E-2,4.554967E-1,-9.216448E-2,2.092935E-3,3.011196E-2,1.9317092E-2,1.4408169E-2,1.18360244E-1,-1.1916588E-1,-3.2376267E-2,2.5092175E-2,-5.2758627E-2],"split_indices":[0,4,0,0,0,5,0,3,0,0,4,0,0,0,0,0,9,3,0,0,0,0,0,0,0,0,